2708 64
35 -0.1416234 0.28511623 -0.12968294 0.3542194 -0.24059162 0.5332814 0.48289278 0.015637586 0.1892012 -0.04142811 0.58649385 -0.15821122 -0.33840823 -0.4900248 0.5208509 -0.13754053 0.122756645 0.08203132 0.021168122 -0.09650296 0.20964725 -0.044247765 0.21417049 -0.20149784 -0.23976693 -0.4697904 -0.20076016 -0.043637846 0.20229958 -0.20468043 -0.14128985 -0.14824726 -0.054461744 -0.26119068 -0.27453992 -0.5381432 -0.114094116 0.18723197 -0.10864486 -0.012306194 0.7618303 0.063048445 -0.11362264 0.45464572 0.0005163905 -0.3954235 0.3309978 -0.0063524162 0.3262871 0.23322834 -0.09883364 -0.34744528 -0.3743243 -0.19475935 -0.19221045 -0.24863686 -0.30713192 0.056213602 -0.13868015 0.24664292 -0.0149069615 -0.09921977 -0.21493576 -0.42311797
1365 -0.3221673 -0.0380548 -0.19577162 -0.5562591 -0.27676153 0.41490364 0.28676307 0.16685852 0.5861879 -0.25188363 -0.06143094 -0.60163 -0.101191014 -0.17609602 -0.014534832 -0.15311897 -0.6318402 -0.04396626 -0.015218769 -0.57317436 0.2858874 -0.10038665 0.047320813 -0.19269127 -1.1587502 -0.46225503 0.08068307 -0.28755096 0.108002394 -0.22430101 -0.3360871 0.08212863 -0.103268236 -0.06830941 -0.4296712 -0.23420544 -0.12319709 -0.38091254 0.5850926 -0.010808797 0.016166944 0.32050884 -0.05512875 -0.09413518 0.044726487 -0.25153187 0.644193 0.44619045 -0.765428 0.60090727 0.24532528 -0.18747224 0.37725323 0.3029896 0.24650432 0.21534213 0.21751398 0.1555874 0.17131896 0.08567345 -0.021174276 -0.05883824 0.11703354 0.25377116
6213 -0.019812988 -0.17355573 -0.12783325 0.08325757 0.022666322 -0.23904313 0.03652662 -0.2971396 0.13444476 0.13216774 0.38996175 -0.43592513 0.39707783 -0.45303044 0.2829686 -0.450608 -0.146803 -0.078276 -0.42583704 -0.11502107 0.05416193 0.19332875 -0.027779726 -0.1908 -0.040370855 -0.21285008 -0.29971224 0.231301 -0.20598704 -0.22202696 -0.34884286 0.48250145 -0.29896343 0.66539776 -0.34543833 -0.3982818 -0.37805533 -0.113422334 -0.26374814 -0.099882595 0.6470259 0.43003988 -0.33620122 -0.1882084 0.012982302 0.0062422664 0.35872927 0.6187274 -0.56821096 -0.18996124 -0.35227025 -0.6876118 -0.18298781 0.75791156 -0.36090127 0.05701848 0.25505912 0.050979316 0.3900501 0.042454556 -0.47678518 0.40765494 0.2988325 -0.09933836
3229 -0.1701026 0.061269015 0.038949203 -0.3991874 -0.82757944 0.5284881 0.42950344 0.009722423 0.08808456 -0.035324525 0.21155328 -0.32885787 0.12902515 -0.005470291 -0.61852235 -0.55995417 0.09574558 0.067462415 0.2822674 -0.32593784 0.18784402 -0.21806847 -0.0113319 -0.27904806 -0.33255088 -0.29648206 -0.22990339 0.25957292 -0.30269352 -0.55483013 0.026147323 0.03479333 -0.39732802 0.2081567 -0.24478549 -0.18713517 -0.16448568 -0.56327367 -0.022994053 -0.14550512 0.13562636 -0.3783226 0.4528015 -0.0027923004 0.025982274 0.1454353 0.51243275 0.8250197 -0.2941726 0.647086 0.096253105 -0.3706638 0.25310928 -0.14613883 0.13772354 -0.37621742 0.4348565 -0.23270601 0.1440935 0.15432043 -0.15195033 -0.26638344 0.024122268 0.23217484
910 0.2796005 -0.17009093 -0.23358671 -0.65440327 -0.44947517 0.5970011 0.34307545 -0.1336625 0.11845768 -0.017710757 0.081850745 -0.7392091 0.49146646 0.018327665 0.2900009 0.0042501763 -0.16962726 -0.33580494 0.060534574 0.33699387 0.46146867 -0.56678325 0.59578145 -0.20013751 -0.25864217 -0.36219388 -0.081401564 -0.4840004 -0.45921665 -0.040234853 0.46986377 0.9239799 0.09857171 0.17674622 -0.3930454 -0.32297668 -0.110175386 -0.13924325 0.36341313 0.13821536 -0.044277735 0.38676634 0.14457501 -0.29297104 0.26760727 -0.15277798 -0.059258714 0.53249055 0.08450253 0.6532934 0.7556246 -0.29485002 0.014127182 0.21280159 0.07112409 -0.21319278 -0.46256313 0.07820104 -0.1823221 0.09488372 -0.6865466 0.6665768 0.20467964 0.5008282
4330 0.17753074 -0.36334762 -0.61234343 -0.075874686 -0.19559783 0.6562624 0.07335842 0.5679007 0.5251041 -0.45654163 0.38627008 -0.1633293 -0.05139264 -0.13309596 0.3761387 0.73073566 -0.08433037 -0.4274996 -0.30967757 0.5646302 -0.5445521 -0.1060959 0.11466093 -0.112140104 -0.2570949 0.32038596 0.03279049 -0.073904075 -0.030934185 0.2278234 0.2836155 0.031866733 -0.07485013 0.23592454 -0.023184968 0.13460492 0.37556994 -0.7314989 0.36226922 0.05606791 0.008101571 -0.29369342 -0.111113764 -0.040578566 -0.052744675 -0.19839218 0.19084442 1.0986354 -0.002807097 0.7006856 0.11802598 -0.20029621 -0.26830176 0.7157386 -0.3945369 0.13276361 0.3362201 -0.4045647 0.0502644 0.56833833 -0.30405784 0.5222763 -0.24515787 -0.026976675
114 0.21830732 -0.1701851 0.123743564 -0.10610765 -0.59729517 -0.008464628 -0.08253031 -0.16363724 0.15908389 0.40849313 0.5739067 -0.009275018 0.31817406 -0.46664217 0.33350852 -0.55317044 0.4762374 0.02295604 -0.81924224 0.025757771 0.2929511 -0.06118201 0.07699214 -0.47816563 -0.468101 0.052761845 0.016915198 0.12254712 -0.30401194 0.26744947 -0.16673185 0.14829138 -0.43075916 0.41401032 -0.8913204 -0.12722427 -0.6980127 -0.2173331 -0.28556606 -0.14826284 0.5186042 0.71099705 -0.4827662 -0.4165535 -0.11925321 -0.19182561 -0.075948775 0.59020513 -0.56041026 -0.21554428 -0.1620143 -0.16512223 -0.06010481 0.32942557 -0.5402372 0.15935616 0.49693307 0.093705766 0.37685826 -0.068108626 -0.4053041 0.47811785 0.13786662 -0.15709707
3231 -0.25631753 0.27761158 -0.14631733 0.208802 -0.5813761 0.31754902 -0.5575946 -0.04086449 -0.28344566 -0.3738047 0.6784287 0.19234495 -0.058615077 -0.31478027 0.29395142 -0.06968664 -0.32081312 -0.65368694 -0.25736138 -0.8057215 -0.34457335 -0.26758522 0.5302383 -0.117142245 -0.101675324 0.29561496 -0.022725035 0.13037838 -0.52232987 -0.67920715 -0.29275814 -0.4404681 -0.17910233 0.076450676 0.19024327 -0.45743838 0.2847468 0.23691729 -0.019304119 0.039848413 0.33504 -0.051678255 -0.12010309 -0.5127213 -0.34298563 0.024244703 -0.029056173 0.6668924 0.2770741 0.3331794 0.4737742 -0.14754704 -0.18406701 -0.32331866 0.23222183 -0.3585478 0.61828303 0.36360595 -0.31144193 0.6569026 -0.22112651 0.7632049 0.12405903 -0.5494337
19621 0.2708055 -0.27274832 -0.038229592 0.0554397 -0.51602626 0.35178238 0.21849959 0.2931059 -0.39485234 -0.29845858 0.37675002 -0.6403573 0.48463425 -0.043661963 0.13608438 -0.27081695 -0.45471886 -0.11303579 0.26371896 -0.5050311 0.15994555 -0.34814152 0.34705523 0.4463216 -1.5443763 -0.129483 -0.29563472 -0.039575603 0.18873039 -0.3544506 -0.19473152 0.8904131 0.22588037 0.1157239 -0.5464184 -0.5830629 0.38880682 -0.04033088 0.45357484 -0.041792493 -0.2508291 0.13843316 -0.04762263 0.11621773 -0.28238082 0.103370085 0.80618 0.9774938 0.01965125 0.365085 -0.042647183 0.24197166 0.22779723 0.3991845 0.107312694 -0.14683096 0.009679071 -0.08456681 0.26476467 -0.3311796 0.20802955 -0.65480906 0.13119103 0.612296
1272 -0.46985486 0.36027557 -0.025608374 -0.28229815 -0.20644358 -0.048767768 -0.22628185 0.30798182 0.6095274 0.5207502 0.8661763 0.44850472 0.37887377 -0.5247398 0.17685631 -0.24488612 -0.708644 -0.4397262 -0.02617985 -0.8265662 -0.06745576 0.26653773 0.35094133 0.15851176 0.3626814 0.36014733 0.40341237 0.023519114 0.065953836 -0.5410022 0.32163584 0.25069055 -0.58129615 -0.28740177 -0.37990385 -0.39538708 0.42434236 0.20180486 0.16866387 0.023306875 0.14005794 0.040591013 -0.6639312 -0.054442182 0.36290172 -0.3654951 0.36307484 0.2947231 -0.23169543 -0.17015874 0.29701152 -0.29734945 -0.32745454 0.08460535 0.46770915 0.24140829 0.4146641 0.003071388 0.21912925 0.009196169 -0.1426189 -0.10344972 0.21509118 0.23137408
2440 0.3285467 0.29756963 0.38829947 -0.41313586 -0.13253607 0.029570246 0.19890757 -0.23570433 -0.0416997 -0.091524094 0.47296092 0.05200901 0.4859546 -0.3672902 -0.061616372 0.21489494 -0.44031218 0.8077909 0.012825534 -0.8861639 -0.14463839 0.040341076 1.0351229 0.36143777 0.031976324 0.091266096 0.8143985 0.29660803 -0.03179591 0.037028056 -0.037625898 -0.20771068 -0.25890392 -0.024549114 -0.64261645 -0.5310867 0.82310367 -0.29531676 0.2530547 0.28182516 0.45721546 0.19086212 -0.90504134 0.19845808 0.049339052 -0.44789505 0.16763704 -0.037874833 -0.08031392 -0.47349274 0.28219092 -0.15217151 -0.30016026 0.24385072 -0.19601345 0.6641076 0.95219964 0.1697024 -0.5496957 0.7907466 0.020519122 0.2245215 -0.06448634 0.6169091
4584 0.15069245 0.08510723 -0.11507168 0.14671224 -0.22386636 -0.14290412 -0.21775903 0.10677434 0.2753378 0.03439619 0.49223414 -0.19063011 0.18774298 -0.67873394 0.3041289 -0.6805015 -0.3164882 -0.18529026 -0.3827355 -0.16829705 0.2738642 -0.11889579 -0.029475255 -0.2584838 -0.33798352 -0.26673084 -0.33517918 0.07547414 -0.19276156 -0.29912958 -0.078654826 0.61500907 -0.28052726 -0.06914501 -0.4465733 -0.11555856 -0.78335875 -0.2146741 0.3215753 0.023342859 0.71086794 -0.081636444 -0.43353307 -0.33214366 -0.3654972 -0.29567823 0.67494965 0.45056966 -0.6409979 0.19841501 0.27053437 -0.32200882 -0.16090138 0.576584 0.13790166 0.39112312 0.11073753 0.20375313 0.54157466 -0.093494646 -0.12985787 0.30107746 0.14271209 0.18775187
6214 0.026829572 -0.16007724 0.083397426 0.13137256 0.092660174 -0.074461624 -0.04534886 0.13588546 -0.09315685 -0.1955923 0.6490382 -0.19002803 0.27576178 -0.21843077 0.77132064 -0.25082186 -0.15232046 0.04322443 -0.33689883 -0.3949886 0.53036034 -0.5731006 0.18828823 -0.25393796 -0.3145959 0.047601655 -0.03926443 0.19606298 -0.37317356 0.38974497 -0.007337164 0.3508441 -0.3707398 0.18908386 -0.82304597 0.18014272 -0.47296458 -0.11514414 0.13634036 -0.18253471 0.55957 0.23326233 -0.38451764 0.09911385 -0.13739464 -0.1754638 0.38831797 0.49428856 -0.9914778 -0.15560822 -0.092417486 -0.35891917 0.14837128 0.23997022 -0.037305363 0.22691306 0.36492795 0.21259885 0.6543772 -0.13644582 -0.21097477 -0.13601623 0.38086143 0.009110801
24966 0.58268607 0.401242 -0.9444947 -0.36979347 0.2278705 0.51244456 0.0064753746 -0.18464091 -0.084697254 0.07610327 0.44013974 0.21557254 0.22427033 0.21831515 0.6071436 0.052483853 -0.13171259 0.30442005 -0.38178077 -0.34056568 -0.28491303 -0.31899315 0.14590962 0.0025274782 0.3478864 0.24135847 0.39976382 -0.5336182 -0.17886665 -0.47947356 0.42166865 0.39846602 -0.22819746 0.2959685 -0.48275596 -0.57937723 -0.1709507 0.038733967 -0.653728 -0.18616349 0.055131447 -0.21478711 0.361496 0.57363087 -0.21368231 -0.37806678 -0.13614853 0.51438874 -0.38982117 0.9928153 0.502091 -0.45384008 0.81678367 0.3375812 0.4808631 -0.7745566 0.31072497 -0.22308138 -0.158304 0.18502595 -0.34529966 0.3353997 -0.01785809 0.58255
887 -0.13451834 0.13221045 -0.24224448 -0.051953875 0.036411088 0.1090109 0.48909694 -0.28318247 -0.28115612 -0.058072716 0.19701481 -0.20194168 0.105842695 -0.14704767 0.1467321 0.02051957 -0.20118889 -0.052793026 -0.07132664 0.0026688473 0.28665027 0.17231475 -0.153589 0.65175146 0.25233167 -0.009305722 -0.28639475 0.55572516 0.0653458 -0.11965032 -0.5347851 0.220611 -0.09118321 -0.27388856 -0.122550525 -0.012478672 -0.025434066 -0.13453846 0.015069852 0.07582343 0.7784765 0.52591264 -0.035617188 0.08255971 0.18960896 -0.65086335 0.53793555 0.6593554 -0.5620189 0.10203333 -0.27719 -0.97759396 -0.36955115 0.33917528 -0.69107485 -0.08228226 0.124343336 0.5290084 0.22382265 0.24813351 -0.27860758 0.05601787 0.21734782 -0.5514626
2665 -0.71195775 0.34694314 -0.08713444 -0.04364307 0.54399323 0.5508371 0.4061873 -0.56322825 -0.081982575 0.026357211 -0.2309539 -0.38234213 -0.23013073 0.5629983 0.29347393 -1.0302666 0.3738049 -0.2708608 0.4378859 -0.15432902 -0.22508883 0.40661472 0.948953 0.21719982 -0.982466 0.6183574 -0.7300599 -1.0208849 -0.45659438 -0.21704532 0.16404055 -0.115376964 -0.16212398 0.08274627 -0.9099087 -0.5849639 -0.033079468 -0.34582162 0.21103463 -0.52375084 -0.31004986 0.43667677 0.3683221 0.046580482 -0.3885653 -0.38842458 0.47892112 0.36052904 0.17600459 0.60264564 0.3100771 -0.40563235 0.70007515 0.89686656 0.05529153 0.09187929 0.48482892 1.0770328 0.060780384 0.4988344 -0.34614184 -0.6582511 0.09363926 -0.19415775
20193 -0.019997206 -0.18036371 0.3383449 0.098946236 -0.22175647 1.5975231 0.5808061 -0.26535362 -0.2713088 0.6496046 0.8264488 0.88866377 0.22773573 0.26486844 0.29379472 -0.38900763 -0.7619675 -0.22669892 -0.32198644 -0.43668628 -0.26929125 0.2593569 0.61164916 0.32821897 0.41518384 0.29509446 0.82755715 0.1554983 -0.14330983 -0.336314 -0.34703565 -0.12011427 0.8478638 1.384087 -0.45191264 -0.38134336 -0.27648818 -0.703626 -0.41186035 0.08163555 0.69042635 0.08347415 0.2690853 -0.17891145 0.17443217 -0.2108546 0.31093115 0.4201396 0.3463366 -0.43096617 0.2956321 0.32803872 0.87986827 -0.0709513 -0.8742085 1.6335928 0.05928975 0.24757186 -0.36776015 -0.04420296 -0.5687307 -0.73169106 0.62306565 -0.1921357
8224 0.12609197 -0.029250685 0.29046148 -0.2058256 0.14741741 0.5394981 0.07592783 0.054992687 0.90692043 0.49429938 0.29462716 -0.6870512 0.4618579 -0.8566586 0.40170577 -0.19187512 -0.17594726 0.26700565 -0.68630725 -0.75954044 -0.13796699 0.26637125 0.8876077 0.38946706 0.37578622 -0.1912459 0.3075027 0.24781477 -0.34293866 -0.23796706 -0.07182307 -0.24694477 -0.038272467 -0.26934278 -0.6155126 -0.3986766 0.17828247 -0.09608985 0.175304 0.4685503 -0.085347705 -0.6961139 -0.3262743 0.056230422 -0.102633804 0.2924893 -0.13233063 0.091536716 0.15582459 0.064527676 0.091934875 -0.5106618 0.17493705 0.2134106 -0.18027395 -0.22768009 0.94072974 -0.5361509 -0.25062937 0.5579922 0.28789592 -0.075507306 0.53400636 0.15055338
12182 0.60386926 0.05467629 0.9844241 -0.6112291 -0.850507 0.9088727 -0.48585877 -0.24465765 0.15231684 0.6431173 0.51315975 -0.42104727 -0.2677145 -0.1462544 0.005322558 -0.0389994 0.25821763 0.3839079 0.16289926 0.13987193 0.08739625 0.6672 0.3985113 0.4218042 0.4123254 0.19877481 0.2468481 -0.54815954 0.55565894 -0.091660745 0.78995633 -0.5266229 -0.38954425 0.0238357 -0.99390143 -0.030429441 0.23773961 -0.58199 -0.13163318 0.18552017 -0.14098185 -0.6082776 -0.1911641 1.1848725 -0.32771438 0.1762529 -0.2312742 0.60818523 -0.27458 -0.30441904 0.59972 0.026209058 -0.48799846 0.6670157 -0.16052237 0.10995779 -0.2037027 1.0919182 0.24519353 0.29775232 -0.11354681 0.7764143 0.7822594 -0.46752873
82920 -0.38587072 -0.23335573 0.13363293 0.94738054 -0.38500848 0.61008096 0.891899 0.13325174 0.09425707 0.22716175 1.030753 -0.23454748 -0.4926379 -0.3315967 0.39337468 -0.23856328 0.28906593 0.1111738 0.58145434 0.23343085 0.44713753 -0.6674792 0.14472285 0.22828384 -0.4934948 -0.50798166 0.3927755 -0.044496354 -0.0029396627 -0.3092021 -0.5732753 -0.43201128 -0.27331007 0.15807548 -0.63458383 -0.43620005 0.5536769 0.20066538 -0.19009778 -0.12955087 0.7138266 0.220747 0.30526406 0.47301126 -0.01001354 -0.50870615 0.091778204 -0.58467716 0.35190347 0.26343143 0.15544307 -0.78017175 -0.26122126 0.14163539 -0.24139468 -0.073377594 -0.32653034 -0.09346961 -0.2815869 0.3836727 0.4437632 0.41262364 -0.1327888 -0.5825026
22563 -0.49406958 -0.777784 0.2558475 -0.6415711 0.19513889 0.18883532 -0.52599674 -0.65620303 0.29737806 -0.14089239 0.64199525 -0.75511837 0.04533129 -0.53151286 0.26339132 -0.23813014 -0.22487615 -0.74881816 -0.21061987 -0.14983644 -0.19703561 0.2942863 0.33132997 0.2559735 0.47599572 -0.20070761 0.13942054 -0.14054583 -0.5223927 0.15889063 0.27348846 -0.07029748 0.078626186 0.10356885 -0.62885076 -0.74272496 0.37989685 -0.24919955 0.47404015 0.55778056 0.41367596 -0.6311555 -0.3815182 0.14208642 0.14893001 -0.5596593 -0.10338662 0.24281421 -0.12314043 0.35925147 0.44635463 -0.19071764 0.17659432 -0.14530724 0.1829253 0.22453545 0.16847198 -0.76306075 -0.014616866 -0.40067136 -0.138487 0.0076064127 0.14503549 -0.023754485
12576 0.13661517 -0.48701227 -0.019900935 0.6008681 -0.124493174 0.256634 0.33922416 -0.86788046 -0.08787647 0.2435985 0.26792017 -0.5823247 -0.36455888 -0.5282162 0.41848406 -0.3780058 -0.08593114 0.75097805 -0.18366767 0.022622045 -0.11337617 0.3951288 0.3102321 0.017722294 -0.112279594 0.046441566 -0.15150785 0.3084858 -0.40177095 0.06127878 0.01715147 -0.043626476 -0.12912782 0.2995637 -0.06010564 -0.3885832 -0.16411428 0.29848894 -0.09991693 -0.26414374 0.82416373 -0.13805267 -0.51581657 0.24435088 0.023376936 -0.74734366 0.879469 0.49207905 -0.27781045 0.59063375 -0.5199816 -1.2503705 -0.7157113 -0.28218967 -0.348232 0.38229254 -0.43228516 0.97929865 -0.042238895 0.049389906 0.28939605 0.26497728 -0.24375078 -0.08711393
12350 0.3215351 0.050487738 -0.11883918 -0.3639101 -0.6669979 0.8113398 -0.5426838 0.04057715 -0.14000282 0.6030464 0.58254516 0.11259566 -0.3423597 0.098665945 0.6268146 -0.024687111 0.13347793 -0.45764816 0.35270974 0.08442126 0.13378003 0.36364937 -0.07102161 -0.06342039 -0.0073789624 -0.07182476 0.7011955 0.3620361 0.4342262 -0.16278303 0.2193287 0.1306254 0.11414006 -0.37869912 -1.2808703 -0.2732501 1.0383893 -0.0407046 -0.26536876 -0.39372802 -0.28805813 -0.24775288 -0.45059228 0.1471314 -0.0436516 0.73354936 0.29704782 0.31543496 -0.5230995 -0.3430634 0.8434917 -0.9394988 -0.6128725 -0.019975007 -0.3733385 0.3782497 0.017869633 -0.012845289 -0.09877885 -0.13831785 0.031674616 0.3825338 0.27679405 -0.28078473
10169 -0.0485471 0.05470635 -0.36231777 0.30723667 -0.88129467 0.24763612 -0.7854169 0.3482201 -0.50141644 0.05774316 0.50710815 0.055023007 -0.114276685 -0.36448306 0.2894916 -0.0953382 -0.21316966 -0.74768215 -0.111926906 -0.5265851 -0.36774272 0.46952194 0.6904092 -0.27391645 0.15985397 0.45847183 0.5624102 0.18683785 -0.17842849 -0.75258195 0.091806956 -0.49083692 -0.3417506 -0.07577156 0.017380975 -0.5455168 0.25843376 -0.29186133 0.30192298 -0.032310132 0.2946855 -0.16978538 -0.25563866 -0.27299625 -0.45632595 -0.048899367 -0.14603566 0.9900397 -0.058638807 -0.114420384 0.6044207 -0.53721446 -0.08428096 -0.7235597 0.45316088 -0.090120025 0.5290868 0.6459975 -0.80482566 0.21508546 -0.3732291 0.14940469 -0.28148133 -0.015436797
39890 -0.10744398 -0.55943626 -0.023265984 -0.2582618 -0.7066055 0.069725074 -0.015031691 0.56962043 0.041225523 -0.2732893 -0.3636704 0.07595585 0.48553997 0.111198045 0.88901615 0.4445885 -0.10288003 0.027524315 0.105168805 0.15206829 0.1439463 -0.16471654 1.6961303 -0.32424426 0.4205995 -0.2078333 0.15066734 -0.5592145 0.498567 -0.15710358 0.04604408 0.021013508 -0.5601503 -0.067431785 -0.615511 -0.21009958 -0.27721417 -0.54556644 -0.55872494 -0.48283383 0.36581066 -0.17297664 0.4694167 -0.15190095 -1.2642604 -0.76588553 0.010662723 0.29862946 -0.7448243 -0.31390908 -0.14399008 -0.8620359 0.63214856 0.3857967 0.738969 0.88942164 0.20298304 -0.32313508 0.33599687 0.65615594 0.20609215 -0.3921711 0.9865634 -0.5962541
15429 0.73461926 -0.14546284 0.1211337 -0.26470762 -0.642292 0.55974054 -0.5314554 0.28796542 -0.5744266 0.5428524 0.3405315 -0.31698206 -0.3804913 0.017159166 0.87016916 -0.5346959 0.5063754 -0.08384135 -0.3945299 -0.10925247 -0.0103396205 0.9827012 0.50636184 -0.24168257 -0.051363587 0.6756689 0.46225595 0.3951334 0.13808541 -0.82298255 0.21331896 0.006201004 -0.72026825 0.07622947 -0.16913684 -0.6185952 0.34147367 -0.4936956 -0.34831518 0.14230536 -0.6272034 -0.32807663 -0.11159092 0.54950887 -0.55842304 0.1292583 -0.49731037 0.88090277 0.27295715 -0.08060721 0.5031974 -1.0203499 -0.5071243 -0.6301176 -0.10740915 0.56885487 0.18122813 0.15256435 0.10634323 -0.09485343 -0.1593573 0.37326032 0.12467909 -0.19825801
3220 -0.43630427 -0.92428976 0.3267243 0.21217044 -0.03860786 0.6882162 -0.98251885 -0.7101338 -0.2388089 0.12745151 1.2186246 -0.03189946 0.69422716 -0.25217333 0.26808488 -0.52270746 0.097798444 -0.77586436 -0.836046 -0.74295175 0.001996305 0.855583 0.5313603 0.24549304 -0.16142191 -0.68617177 0.24745032 -0.23350173 -0.38367572 0.015876308 0.082501836 -0.16612165 0.060952116 0.5532203 0.03967345 -0.4027484 0.5337906 0.08740373 0.3076166 0.36588377 -0.45106423 -0.48161253 0.17812721 0.41198686 0.29585838 -0.17239223 -0.3879545 0.661738 0.2389808 0.048777267 0.40559384 -0.31372938 0.075950526 0.6630064 1.1297408 0.07202712 0.2778232 -0.38826874 -0.2890551 0.67540073 -0.21936592 0.21924937 0.26629847 -0.64767873
2658 -1.2775916 0.8371466 0.1860728 -0.27762058 0.33895007 0.46753952 0.39689022 -0.25646824 -0.4229327 0.26497588 -0.22521985 -0.17352328 0.48686308 -0.271173 0.54506224 -1.5668691 0.57746685 -0.18042779 0.5284894 0.10917815 -0.7090865 0.4267992 1.0593035 0.19911645 -1.0039194 1.2994077 -0.7388131 -0.85575074 -0.48291963 0.18171352 -0.12744723 -0.67779005 0.07381154 0.080329716 -1.4206469 -0.9131223 0.017047731 -0.45466113 0.13618426 -1.2704395 -0.5057809 0.17670138 0.34682968 0.3437796 0.060513493 -0.9925395 0.448927 0.2762895 0.5038562 0.5928019 0.3073798 -0.67474735 0.6377943 1.1833528 0.34864938 0.0834025 0.3180071 0.92702943 0.08219626 0.68831795 -0.4842132 -0.8047479 0.10580166 -0.3476012
8703 0.063822314 -0.037141584 -0.06509594 -0.25319996 0.21087115 0.19843298 -0.46184912 -0.34322408 0.04746072 0.04319796 0.8072076 0.11009945 0.5423663 -0.75024056 0.1390037 -0.6245445 -0.18302159 -0.18806934 -0.2034553 -0.4118055 -0.86114496 0.062867604 0.97067434 0.22477011 0.3691992 -0.2543622 0.87794065 0.46080378 -1.0928378 0.28472036 0.46729589 -0.20841603 -0.58595854 0.15693058 -0.85993075 -0.46756554 0.36342055 -0.2463571 -0.28350806 0.04446028 0.2662904 0.9037995 0.15106693 -0.44834906 -0.06327257 0.25877064 0.5668904 0.3281763 0.3115586 -0.29834363 0.5438692 -0.36268193 -0.13727395 0.29854786 -0.1968031 -0.23314461 -0.14154392 -0.22874229 0.5392272 -0.31113824 -0.12946342 -0.054986242 -0.09661497 -1.1598203
2653 -0.2550388 -0.06256997 -0.08938812 -0.49974346 -0.42065692 0.47997057 -0.15737906 0.20377603 0.2133114 0.5761629 0.5003389 -0.3461544 0.3300675 0.027538799 0.09096122 -0.5193634 0.3524327 -0.2123118 0.4094286 0.4058119 -0.36675012 -0.018263757 0.636792 0.88640463 0.121918686 -0.17340644 -0.24772678 -0.48274177 0.2024392 -0.23262383 0.3832527 -0.73458564 -0.04273842 0.42728773 -1.1165942 -0.18562588 -0.10785213 -0.014688361 -0.09713883 0.85565513 0.060673207 -0.44284323 0.12560159 1.2104845 -0.20293859 0.08031404 0.09644374 0.5122347 -0.25630325 -0.74971324 0.6724806 -0.1403455 -0.91534185 -0.06390566 0.05958898 0.002539187 0.16738404 0.12763643 -0.2882249 0.4174188 0.62464577 0.5362246 0.7566294 0.011254607
643221 -0.033851206 -0.37930888 0.24689555 -0.4814098 -0.065990575 0.69265246 -1.0597084 -0.23202756 -0.79265153 0.08830136 -0.21724506 0.3338251 -0.0070168064 -1.116843 0.39651328 -0.15402007 -0.27727175 -0.73775053 -0.88714945 0.41600233 0.70673144 -0.8461433 0.4333776 0.097955406 -0.099695824 -0.29531038 -0.5388941 -0.18527657 -0.28332335 -0.089936174 -0.26895723 -0.13703313 -0.4306034 0.28885385 -0.68049496 -0.7020529 0.25190476 -1.0232825 -1.9058882 -0.85762453 -1.0336547 0.177304 -0.22479145 1.2868983 -0.5005189 -0.7404953 0.7374615 0.33485875 0.72800535 0.51892823 0.3729052 -0.22273228 -0.22133063 0.40673587 -0.93994254 -0.3183102 1.0559669 0.5452938 -0.76720345 0.18515699 0.26827192 -0.6828222 -0.5795436 0.5610246
4804 0.92814666 0.024761807 0.28630465 0.019702112 -0.8638559 0.2736639 -0.90859765 -0.53264725 -0.075391404 0.62520653 0.9385832 -0.14687084 -0.39741084 -0.024075314 1.1341054 0.011321205 -0.22550723 -0.15698875 0.06249492 0.31910226 0.5537303 0.73220265 0.25324038 -0.1556729 -0.02599382 0.36607474 0.07771273 -0.1844003 -0.09801311 -0.45088288 -0.50942576 0.16288275 -0.53551996 -0.10709863 -0.6200546 -0.3967615 0.9583383 -0.28173834 0.055066936 -0.017485596 -0.16092369 -0.22586502 -0.33019754 1.1270239 0.016906891 0.71262825 -0.21135056 0.8443964 0.012850729 -0.5291018 0.465723 -0.11605945 -0.57778215 -0.10467753 0.088585906 0.35812205 -0.11670034 0.41727918 0.25168517 0.12924576 -0.51481915 0.7341002 0.26556867 -0.1069133
31353 -0.3208537 0.10481546 -0.6453474 0.46670133 -0.774375 0.88629043 0.23705086 -1.1046079 -0.12921269 0.11114492 0.87737215 0.4116809 1.2992377 0.91201526 -0.0995922 0.33243403 -0.18131477 0.12827307 -0.79677534 0.3121048 0.8711455 -0.14315066 0.6689546 -0.021929784 -0.13560164 0.3468688 0.23308039 -0.014932258 1.2086598 -0.6541077 -0.18816972 0.7012798 -0.00833622 0.039158273 -0.54936516 -0.7666433 0.2772294 -0.9191346 -0.96762484 -0.074448526 -0.74131924 -0.5241414 0.13131793 -0.055583138 0.6119305 -0.38427916 0.027491232 1.0005805 0.15744585 0.35140258 0.9273395 -0.17648615 0.049598947 0.1010364 -0.13394484 -0.33332065 0.11507771 0.015908495 0.881093 0.1357797 0.80546516 0.94307315 0.091835156 -0.6110952
23738 -0.1670382 -0.35382202 0.61737967 -0.18219475 0.19652772 0.5219271 -0.30976754 -0.28824013 0.34847835 0.20590784 0.8186018 -0.95812356 0.15605105 -0.68213284 0.016031621 0.3039043 -0.18955359 0.43352804 0.08208274 -0.36167112 -0.08538565 0.45005834 0.27359095 0.15113658 0.3757749 0.0072643943 0.28634185 -0.0413989 -0.07166564 0.48650813 0.1878904 -0.16700773 0.009965383 -0.29825082 -1.0692204 -0.10372424 0.38374716 0.37865245 0.020732114 0.40558937 -0.31005314 -0.677714 0.20002803 0.29901645 -0.3808107 -0.20361528 -0.13189828 0.64014 -0.3199857 0.09020421 0.5788928 -0.057403438 0.005053908 -0.1364123 -0.80861694 0.11787467 0.39754897 -0.7722822 0.20633028 0.64642704 0.3774151 0.40644315 0.8695347 0.02147822
1481 0.5576533 -1.3830918 0.31795716 -0.10634728 0.5444656 0.60108155 0.10701993 -0.107913025 0.42047366 0.4084709 0.41932273 -0.076344796 -0.03298284 -0.65291345 0.3424899 -0.23675044 -0.6297163 0.091795735 0.21208753 -0.79807186 0.042794283 -0.4906476 0.64285934 -0.30833963 -0.58483595 0.10446129 0.1281437 0.03801661 -0.44224256 -0.47459808 -0.3083354 0.2254119 0.44843432 0.4503389 -0.10386912 -0.20718375 0.008824478 -0.1267163 -0.53009665 0.14527856 0.10692118 -0.022549406 -0.017122133 -0.001217325 0.11270637 -0.82219946 -0.06879177 -0.03447828 -0.23838162 -0.36467186 0.40116197 0.18355064 -0.13900279 -0.4810095 -0.03735059 0.19610663 1.1138033 1.0469602 -0.1774708 0.25831792 -0.59578276 0.07852982 0.59742844 -0.55468315
16819 -0.4312342 -0.87882364 0.3117959 -0.45017514 0.21328759 0.66460925 -0.74481684 -0.12447334 -0.761517 0.044945665 -0.359253 0.07038358 0.15123987 -0.7078593 0.67599726 0.85431534 -0.707598 -0.56092405 -0.55860424 -0.283224 0.25705168 0.050776213 -0.16583362 -0.20824763 0.07234583 -0.23784918 -0.79466707 -0.16973805 0.08634301 -0.027247164 -0.85051155 0.2968814 -0.06914797 0.1404697 -1.3218061 -0.43352678 0.44049403 -1.1426426 -1.6672778 -0.7590644 -1.1358176 0.27915514 -0.41873944 0.9279801 -0.027519986 -0.45761356 0.61301374 0.25112596 0.28984746 0.58198076 0.55550486 -0.6665827 -0.29614398 0.33369038 -0.56577814 -0.31884155 0.20815821 0.58935267 -0.7122609 1.1799178 0.49905375 -0.9194195 -0.23652916 0.41432077
35922 0.07611657 -0.01625149 -0.25502196 -0.19629347 -0.55157393 0.7143784 0.749018 -0.13244769 -0.095607094 -0.08987502 0.16550806 0.13769513 0.7872334 -0.103934415 -0.53661114 -0.7202759 0.100070536 0.021122701 -0.060943346 -0.009647638 0.60674506 -0.74800706 0.19151728 0.22773369 0.045873497 -0.23897706 0.16657594 0.0082388 0.5605981 -0.3786813 0.19650264 0.49583155 -0.49841326 0.5991803 0.046222124 -0.43050826 0.13520195 -0.3025895 -0.38883516 -0.71866727 0.08252735 -0.6316905 0.06232749 0.5896536 -0.0119107785 0.42672685 -0.55694354 1.691664 -0.39195347 0.721974 0.98850316 0.41603526 0.40145352 0.4092575 -0.23118189 -0.030403249 0.24520849 0.54876435 0.51340884 0.34534383 -0.035383657 0.09312437 -0.24564946 -0.47065026
230879 -1.6454046 0.79591465 0.07643409 -0.20342849 0.3767778 0.4853248 0.4817575 -0.5063981 -0.21507256 0.2484073 0.20688136 -0.28251535 0.6340922 -0.19595073 0.51321757 -1.416402 0.27187717 -0.051630672 0.41568443 0.46090773 -0.6708797 0.5712617 0.83500314 0.09650057 -1.1119665 1.2879509 -0.952009 -0.80386025 -0.7675318 0.0972335 -0.18517958 -0.5449641 -0.007884977 -0.044021428 -1.2001982 -0.7288406 0.69290656 -0.9269145 0.19913176 -1.1563867 -0.78157777 0.63613683 0.22609752 0.14525564 0.05229138 -0.5094847 0.2950834 0.061141804 0.6286032 0.86219895 0.31437084 -0.5733794 0.8311099 0.76153 0.4761089 0.5229088 0.32987207 0.6070028 0.010591814 0.75634074 -0.59524554 -0.4768196 0.6289461 -0.73641175
39127 -0.40559125 0.41093075 0.04219894 -0.13206285 -0.8948872 0.6202039 -0.18541268 -0.4080662 -0.60810435 -0.2780915 0.27704722 0.04914782 0.022991108 -0.7274627 0.7963385 0.5284405 0.05888909 -0.5756908 -0.07697523 -1.4041566 -0.24939653 -0.5034064 0.2548382 0.32145864 -0.15369396 0.6863636 0.19460306 0.003148479 -0.46797377 -0.6215223 0.15918478 -0.7196596 -1.4143584 -0.4401318 0.0227468 -0.9247411 0.31083035 0.3493035 -0.2791534 0.009163127 0.4051751 -0.0077261673 -0.45132154 -0.5846 0.3022816 -0.26645714 0.09907492 0.9262483 0.39266574 0.0613189 0.47679174 -0.06675233 0.72994375 0.77689457 -0.06544478 0.6126436 0.97025955 0.4362659 -1.5031207 -0.56159043 0.524963 1.0540285 0.5852316 -0.08208905
1688 -0.66818005 0.4086923 -0.12956151 0.93755394 -0.3647288 1.1649283 0.03875505 -0.21680583 0.6567086 0.19632739 0.9192276 -0.4076319 -0.20706171 -0.6254176 0.5837074 -0.15115014 0.29268497 0.43615228 -0.15776126 0.07582758 0.039476298 -0.42683998 0.16150983 0.2594111 -0.28409314 -0.25275517 0.38262448 -0.70942146 -0.34584388 -0.5848456 -0.03216882 0.026994215 0.047902055 -0.33364418 -0.53157276 -0.54793304 -0.31177172 0.3742137 -0.5993586 -0.32038915 1.0399307 0.04306845 -0.14918166 0.49599856 0.80196124 -0.5980698 0.53243107 0.14889914 0.2987606 0.41665092 -0.13354255 0.06821836 -0.25724363 -0.2686071 -0.1685367 -0.36294377 -0.24659601 0.047659967 -0.48718816 0.37264124 -0.0681105 -0.13551071 -0.24860072 -0.83633155
3191 0.025669329 -0.26904845 -0.18707167 -0.42877707 0.04964564 0.12500148 -0.31015763 0.63219374 0.032699905 0.5171069 -0.08851626 0.13490465 0.45081958 0.020640256 -0.036586862 0.9203251 0.3901434 -0.040622346 0.04237038 0.28402027 -0.19337049 -0.7580758 0.923941 -0.56790924 -0.36872223 -0.015622473 0.4580352 -0.71793824 0.29628196 -0.22603947 0.7822437 -0.28961384 -0.75666237 0.5106428 -0.26685455 -0.35914502 0.4470316 0.1086048 -0.59253585 -0.18925178 0.9108447 -0.99544483 -0.18694973 -0.07867396 -0.8751604 -0.4286693 -0.15377624 0.69654363 -0.4164043 0.6470331 0.41025528 -0.72347856 0.4321087 0.37925187 0.23810714 0.18114944 0.24189404 -0.17589302 0.47170925 1.000346 0.19737503 -0.6627799 0.7816283 -0.4794573
117 -0.35660964 -0.20023572 0.23174366 0.16339546 -0.14303812 0.12583292 -0.17339145 0.16753845 -0.31824112 0.6560003 0.23545519 -0.5262571 0.3439126 -0.028749565 0.5245466 0.15740673 0.20086744 0.5726753 -0.07556746 -0.42542794 0.71651864 -0.35735232 0.26915455 -0.18236057 -0.06049683 0.4225858 -0.30371037 0.22931843 -0.015103171 0.4853489 -0.07817208 0.013975215 -0.4797313 0.09788994 -1.017197 -0.6356652 -0.3542899 -0.5475411 -0.32665718 -0.074346066 0.38721862 0.6565286 -0.6199369 0.043291155 -0.6647441 -0.3700839 -0.46316326 0.5322968 -1.3192012 -0.2229035 -0.3468769 -0.009671882 -0.00074793265 0.9927477 -0.33746725 0.44937682 0.20331371 0.059885245 0.30249605 -0.0036256835 -0.9401635 0.12321968 -0.006788577 -0.008798357
85352 -0.09104232 0.1762327 0.3272961 0.74953806 -0.35500774 0.4747953 0.64291877 0.06994514 0.4236107 0.26733366 0.90088373 -0.126706 -0.46582377 -0.25148976 0.21139649 0.043161135 -0.10370616 0.08358511 0.010717614 0.1408566 0.34392083 -0.6200479 0.1622073 0.25623676 -0.5959828 -0.28668943 -0.12004176 0.18868381 -0.16459297 -0.41961336 -0.28082758 0.38988516 -0.023210034 -0.032824367 -0.6407921 -0.5994086 0.19057335 0.12954101 -0.23418222 -0.11988113 1.0801847 0.1237467 -0.3178541 0.8857694 -0.16235888 -0.7525952 0.040864542 -0.27898806 1.0376244 0.48250702 0.2500659 -0.43707684 -0.535584 0.30572078 0.19222482 0.1821275 -0.09302937 -0.29419512 -0.19371615 0.6684874 -0.04179037 0.13147831 -0.4418009 -1.0182364
10796 -0.07641197 -0.18429068 0.46131003 -0.20481206 -0.22911353 -0.3220681 0.36071166 0.012681398 0.33288562 0.16925937 0.45752543 -0.47062778 0.012790521 -0.5531873 0.4640106 -0.15841196 -0.4388531 -0.25670782 -0.43377334 -0.6849785 -0.16780236 0.17610551 0.79820293 0.15215786 0.12756006 0.35043243 0.3473293 0.17747766 -1.0447145 -0.120679036 -0.46047702 0.21100293 -0.04922451 0.17132217 -0.0059576984 0.28199273 0.23405886 -0.03023251 -0.46380636 -0.09889849 0.2871557 0.17778516 0.24156532 -0.24397819 0.41794282 0.22737539 0.57309234 0.2765693 -0.45028248 0.3063925 0.05239501 -0.4711707 -0.4586057 0.4469943 -0.12569574 -0.2554983 0.7213824 -0.04192567 0.0078094434 0.42431626 0.19443162 0.14253637 0.48006848 -0.504005
2696 0.37854746 0.12231279 -0.6161378 -0.32938743 0.15696476 0.88667685 0.07529473 -0.8501641 0.03829831 0.17477143 -0.38271937 -0.4599506 0.5237622 0.77570784 0.22839178 -0.96610594 0.0012815825 -0.07129782 0.1711432 -0.18073289 0.75780845 -0.5453533 0.7319491 0.033522073 -0.50263655 0.19029078 0.0082137585 -2.143703 -0.2942109 -0.18640153 0.39689675 -0.023617992 -0.088401765 -0.19674407 -0.36963412 0.2466649 0.02026627 -0.61610484 0.01916052 0.96679246 -0.23210256 0.87934977 -0.10277782 0.0376331 0.22719823 0.3266551 0.8943675 0.2732483 -0.2987014 1.5200212 0.6296603 -1.3499067 -0.06599838 0.77907467 0.045916025 0.07664323 -0.040280145 0.2589686 -0.5658284 0.36968535 -0.54603446 -0.10020206 0.45129305 -0.1441145
642894 -0.057468776 -0.7987257 0.25734478 -0.11739996 -0.020894006 0.8270198 -0.86627847 -0.07883752 -0.75289214 -0.22740118 0.4428785 0.42679226 -0.17564891 -0.82111096 -0.029112305 0.37913957 -0.4431715 -1.0193726 -0.79138315 0.32179508 0.8405819 -0.28095388 0.44426525 0.2424674 0.16666123 -0.5215946 -0.17189659 -0.60538167 -0.20105359 0.0025542597 -0.03998331 -0.33264318 -0.6364881 0.30035973 -0.7670107 -0.28474867 0.109379455 -1.19486 -1.8126267 -0.47898158 -0.85792774 0.17892256 -0.0822858 1.3772995 -0.6425586 -0.97157216 1.0989733 0.41409737 0.9858447 0.108915314 0.31752792 -0.17212264 -0.5113957 1.0895576 -1.0418459 -0.17557193 0.77993995 0.5970329 -0.5969739 0.2950228 -0.077601194 -0.4228075 -0.53840405 1.2915509
4335 0.74065137 -0.27051812 -0.13893381 0.24414988 0.20261009 0.8181139 1.0497648 0.3371494 0.053534627 -0.3505895 0.3829666 -0.09963181 -0.45130807 -0.046911698 -0.093650736 0.16584143 0.084841184 0.002311196 -0.106142804 0.30113664 0.29466823 -0.37575063 -0.12699889 0.3181813 0.6414307 0.14076513 0.23978338 -0.47947618 0.23284037 -0.26503146 0.20509805 0.39667457 -0.6412615 0.8097711 -0.6762091 -0.14083077 0.38991752 -0.285629 -0.21571103 -0.3003027 0.15490709 -0.0014461454 -0.23420444 0.57378954 -0.65849495 -0.0071820696 -0.19756265 1.7377478 -0.40421012 0.60975254 0.94721687 0.5061455 -0.24298182 0.53218955 0.08423847 -0.04068637 0.14116454 -0.4603538 0.70522106 0.65894455 -0.23477536 0.46129817 -0.1633906 0.19422416
6334 -0.36536685 0.0007960884 -0.2591879 0.6330244 -0.32687643 0.4974362 -0.8299303 0.619994 -0.13004376 0.33392265 0.8042724 -0.0228826 0.013387529 -0.15340938 0.14217956 -0.3327137 -0.25333863 -0.81633407 -0.09524165 -0.4190069 0.18008775 -0.37101936 0.48205227 0.06392653 0.29666314 0.20665948 -0.45165 -0.09218905 -0.40409708 -0.7441818 0.50922525 -0.5739668 0.0067895562 -0.2892706 -0.36808065 -0.83413213 -0.33297926 0.112198845 0.11179287 0.3417987 0.39092213 0.040661972 0.07432744 -0.7590872 -0.38981405 -0.13406952 -0.083833955 0.6357626 0.16132174 -0.104209386 0.557879 -0.6888139 0.20384958 -0.76952547 0.2356395 0.04676196 0.798278 0.13772792 -0.9573443 0.67584026 0.23394944 0.3649699 -0.16378218 -0.018285286
54131 0.41176406 0.38265094 -0.2823974 0.7971718 -1.1250297 0.49813113 0.41317555 -0.18134208 -0.10281377 0.42471594 0.88372725 -0.2303139 -0.32993346 -1.0534707 0.8139106 -0.018397046 0.08495267 -0.20638016 -0.3213444 -0.16552906 0.80101156 -0.4138086 0.09090445 -0.17725801 0.034989133 0.12991102 -0.4150131 -0.5163135 -0.13017994 0.13981505 0.2911171 -0.77525204 0.5067676 -0.48709956 -0.26006055 -0.3206947 0.38381526 -0.58904064 0.19527721 -0.40472648 0.52212894 0.5885852 -0.14039218 0.3577462 -0.27339792 -0.8519589 -0.17134301 0.12985887 0.57703584 0.52222174 0.19365022 -0.7644029 0.045511317 -0.092553414 -0.1780712 0.04946123 -0.54545116 -0.43912953 0.39382306 0.14052868 -0.2010525 -0.55520207 -0.48385778 -0.22457445
35797 -0.49740168 0.0739413 -0.380753 -0.09646936 -0.43355298 0.6485176 -0.28026727 0.17981136 0.8260966 -0.09774105 0.46473092 -0.5235247 -0.27869695 -0.30605236 -0.42026174 0.84120953 -0.77900887 -0.58210844 0.36355704 -0.047547676 -0.44739726 0.42797574 0.1218597 0.14174804 0.045698766 -0.3043062 0.12277603 -0.42071012 -0.73460907 0.27219096 -0.7228547 0.08744502 0.040524602 0.16743416 -0.20726827 -0.7486998 0.27958542 -0.77295417 0.25768882 0.8856865 0.19399796 0.31567258 -0.30142075 0.44678044 -0.75458175 -0.029293267 0.6007185 0.5178536 -0.13523628 1.203755 0.4035474 0.00533247 -0.10271495 0.018724749 0.09039051 -0.18056637 -0.048581295 -0.5129503 0.48539206 0.38005513 -0.57051134 0.18608418 -0.3588673 0.041558214
210871 -0.29273385 -0.25100836 -0.34787217 0.40767866 -0.37446457 0.34827396 0.71464175 -0.1734389 -0.28566086 -0.1537093 0.63389236 -0.3818823 0.08480954 0.1572906 0.82450455 -0.20851916 0.007884651 -0.42525378 0.3920244 0.041894827 0.47245982 -0.028738946 -0.060061734 0.37969184 0.087624185 -0.38108796 -0.4626219 0.13701594 -0.035929576 -0.080148034 -0.6026047 -0.62748075 0.1815502 -0.44220752 -0.24190173 -0.08185942 0.28920415 -0.17611273 -0.5901454 0.34870338 1.1426704 0.38336277 0.079564564 0.3270666 0.09007588 -0.76628035 0.34134093 -0.11899628 -0.1092698 -0.005309796 0.21307889 -0.7631616 -0.41675156 0.20136419 -0.012614343 0.45474768 -0.28636175 0.2625615 0.09640064 0.22971377 -0.04106365 -0.22380975 -0.6998888 -0.29431397
54129 -0.16221705 0.8381174 -0.13415661 0.69716763 -0.45784622 0.55585104 0.5259484 -0.43993986 -0.0047380594 -0.0577438 0.73641604 -0.8348037 -0.43182516 -0.49121287 0.5373182 0.075412154 0.746913 0.04693076 0.66405606 -0.66775656 0.1267024 -0.05161201 0.49532285 0.13771565 0.4447314 -0.1453785 -0.17592828 -0.39695996 0.5931933 -0.52054954 0.4887471 0.027546626 0.9498046 -0.07581108 -0.5089695 -0.39500222 0.4800043 -0.7115195 -0.29108518 -0.2870495 0.6869601 0.70100653 0.17945565 0.012594998 0.28788644 -0.6572802 0.24633896 0.647096 -0.11818387 -0.5477622 -0.17157228 -1.123025 -0.20752014 -0.4999537 -0.111589745 -0.294934 -0.44205204 -0.3847128 0.19161418 0.8745258 -0.6851448 -0.270082 -0.14820915 -0.274995
3218 -0.22246881 0.11210702 0.26619875 0.18365975 0.44616967 0.08588537 0.3555154 -0.37972808 -0.028264122 0.1744082 0.72690356 -0.63166857 0.28588378 -0.6884099 0.7209209 -0.09832343 -0.12648955 -0.050807986 0.28412375 -0.4155636 0.07488121 -0.30357438 0.86494595 0.26897696 0.61740035 0.3149239 0.41135392 0.5667553 -0.76694053 -0.048363086 -0.41414335 -0.29601687 -0.3875878 -0.18720871 -0.54501826 0.15727718 -0.25091967 -0.319095 0.18217422 0.31858194 -0.16724257 -0.46603617 -1.182461 -0.084870614 -0.16608208 0.16460241 0.5295149 0.52907944 0.17092954 -0.4010537 1.2414917 -0.541835 0.49704757 -0.06527486 -0.29676914 0.30835354 0.24053477 0.08588055 -1.4182135 0.717992 0.11939525 -0.091837056 0.27331725 0.5617073
10177 0.9911217 0.007672973 -0.20117368 0.019221365 -0.8755778 0.10097261 -0.98822385 -0.101262316 -0.013179542 0.5420936 0.7287168 0.052137487 -0.4328676 0.013059361 1.2370518 -0.37985098 -0.37272224 -0.15193862 0.16919442 0.38880596 0.2724169 0.8112982 0.36117166 -0.44138387 -0.11540329 0.0010246715 0.39520666 0.39477178 -0.068465486 -0.68743193 0.018041419 -0.056241322 -0.6887675 -0.17913786 -0.8011767 -0.35237432 0.9603962 -0.57898724 -0.20611478 -0.08576569 -0.4424713 -0.2664548 -0.15559131 0.47954166 -0.33658537 0.541545 -0.15656734 1.175641 -0.14194317 -0.36761 0.4718933 -0.45261446 -0.25366646 -0.61646956 0.13614364 0.32236114 0.0819581 0.5674602 -0.5404549 0.17520827 0.027664507 0.66395366 -0.14339523 -0.6981203
35061 0.18872876 0.19346684 0.023335638 0.37119198 -0.08242347 0.67950267 0.87041175 -0.2997436 -0.19484656 0.22689013 0.8095024 -0.43909028 -0.1382583 -0.16484764 0.5460654 -0.2952695 -0.6593262 -0.6440539 0.015624353 -0.27877024 -0.07379942 -0.05951954 -0.33393642 -0.3192711 -0.4629016 -0.16495875 -0.7206979 0.3981587 0.20946614 0.011762712 -0.6546475 -0.3531194 -0.19328965 -0.06484302 -0.23619515 -0.2902894 -0.16592428 -0.46711156 0.14584836 0.32786202 0.8966165 -0.051259164 -0.04901723 0.35221615 -0.30184257 -0.72375405 -0.1574077 0.61668205 0.4548872 0.11711624 -0.29531437 -0.6487894 -0.1905166 0.24076514 0.4322909 0.14379115 -1.0909344 -0.3166053 -0.23722816 0.083256856 0.30795574 -0.34488082 -0.09607042 -0.15663876
5348 0.2726005 0.12993127 -0.8219945 -0.34783322 -0.0054176906 0.53613156 -0.027037581 -1.1044818 0.50193554 0.45114666 -0.40931585 -0.54569393 0.118383795 0.6159984 0.21904992 -1.0432483 0.02749377 -0.4994228 0.14088823 -0.3685001 0.6091125 -0.15611297 0.5338386 -0.046821382 -0.36175013 0.45746642 -0.11965889 -2.1973524 -0.25853875 -0.35912216 -0.0990145 0.087081574 -0.50935936 0.033631798 -0.1990536 0.3040429 0.29967418 -0.92409754 0.2964967 1.1240523 -0.15160385 1.1208614 -0.14482148 -0.27727225 -0.31655502 0.2920476 1.2417623 0.40279105 -0.111238234 1.2691784 0.44162035 -1.306775 0.20406838 0.7175932 0.39275992 0.3621773 -0.22345328 0.78751415 -0.41027585 0.5686852 -0.43518162 -0.09881926 0.29709476 -0.21057688
2654 -0.06798543 -0.31818482 -0.22100458 -0.63683957 0.054397162 0.28697273 -0.612161 -0.062348463 0.3187815 -0.5473906 1.4743232 -0.35808745 0.5596036 -0.22173658 0.46702957 0.4158699 0.5011709 -0.37740785 0.2926537 -0.25780758 -0.61664224 -0.56877685 0.8686364 0.18162568 -0.16703774 0.009987933 -0.4548389 -0.5553408 0.12501542 -0.18531694 0.14356646 -0.6839478 -0.14952692 0.21287255 -1.0150931 -0.027378708 0.019054543 -0.18834324 0.8705609 0.86673594 0.3935475 -0.37633616 0.5650033 1.1986642 -0.15412968 -0.14689901 0.2604035 0.21325509 -0.19271038 -0.25924712 0.45542547 0.17413703 -0.5216546 0.11159488 -0.5109628 0.12180932 0.2502914 -0.24602044 -0.0223404 1.0890696 0.6574245 0.54588914 1.0607738 -0.0022524316
34257 0.96041423 -0.80300754 -0.062293604 -1.168819 -0.43489474 -0.8364328 1.1486955 1.2617193 -0.45017442 1.3537552 1.3256202 -0.4409098 -0.028692542 -0.29347852 0.099470325 -0.18222845 -1.002161 -0.18021995 -0.798742 -0.73747075 -0.88932854 -0.09656339 0.75362474 0.38343394 -0.8438375 0.1803109 0.20589319 -0.627921 0.96654063 -0.13199024 -1.0026848 -0.11262441 -1.5269167 0.17688169 -0.044570193 -1.1708487 -0.42270264 -0.44209683 0.18069722 -0.4572551 -0.35851943 0.49843028 -0.3418019 0.8623944 1.0961486 -1.5663115 0.109450445 0.5560457 0.008311819 0.04370483 0.9593373 -0.7536514 0.9308614 0.22420397 -0.5796617 0.050459698 -0.33670238 -0.049435522 0.14348035 0.62842906 0.337188 0.59404194 0.4191303 -0.3029876
38205 -0.21973397 0.20660591 -0.42548782 0.5639961 0.109654725 0.6507692 0.5530312 -0.3438609 0.12366804 0.0055875876 0.09056855 -0.60913396 0.46481466 -0.19593994 0.5321206 -0.22439648 0.40017882 -0.2056864 0.4550759 -0.30419695 0.25371546 -0.087739475 0.22524948 0.184896 -0.062142733 -0.22466326 -0.3358814 0.47933134 0.1690195 -0.36344406 -0.24643576 -0.037295513 0.256718 -0.6760653 -0.100718014 0.13923863 0.34464705 -0.0924229 -0.84917146 0.4359739 0.77164996 0.32515278 -0.13072638 0.48107538 0.09015463 -0.9653247 0.5007059 0.78682774 -0.29527843 -0.6576451 -0.28486878 -1.310986 -0.42776775 0.23173963 -0.41631043 -0.17854156 -0.48207188 0.42236686 0.18703 0.3663795 -0.25021583 -0.3158452 -0.20320134 -0.4368734
18777 0.007474227 -0.30254892 -0.07004403 0.28285688 0.5321818 0.027496694 -0.07686343 -0.32432184 -0.7844411 0.19828433 0.76578945 -0.47476387 -0.45064944 -0.25722477 0.6087276 0.15541345 -0.09604329 0.565804 0.36728567 0.09492267 0.27161106 -0.57379675 0.72049516 0.58844876 0.47428098 -0.16459353 0.4154875 -0.63781464 1.0947864 -0.1991083 0.61296016 -0.49607486 -0.49464875 0.67795026 -0.8132224 -0.5094563 0.38950592 0.005487256 -0.34743986 -0.13124035 -0.23970802 -0.28142196 0.05225288 -0.056577004 -0.8369528 0.026901934 -0.14912878 1.2799579 -1.2083586 0.2328498 -0.42224848 0.32105926 -0.30385825 0.5924066 -0.63401806 0.4137935 0.27851844 -0.1866358 0.37182233 0.2744709 -0.25309882 -0.25220945 0.03883675 0.42549765
65074 -0.30846477 0.15842253 0.18324149 -0.6965073 -0.7939594 1.6918148 0.6702455 -0.78801656 -0.3735167 1.8454087 0.23547484 0.262563 1.2476758 -1.5006939 0.1901535 0.0849618 -0.36431435 -0.5429238 -0.108797275 0.6965691 -0.31650606 -0.45588395 1.4808297 0.25741437 -0.17503268 0.03449687 -0.06945287 -0.7817774 0.42764786 0.5010284 -1.107008 -0.10957864 -0.3962995 0.0861972 0.044907115 -0.22842738 0.5599196 -0.95744103 -0.46795744 -0.3473147 -0.5381569 1.3472666 -0.10442767 0.5546238 -1.076483 0.33887824 0.31206274 -0.2081199 -0.87807614 -0.14188533 -0.9781618 0.0032636824 0.8894165 -0.9730276 0.10031185 0.83832896 0.25710523 -0.69067585 -0.04292765 1.4598137 0.4698733 1.100565 0.113723874 -0.26059356
28350 -0.08774978 -0.34929118 0.0032169549 0.12569328 -0.227935 -0.06752189 -0.31835076 -0.06295676 -0.10746053 0.2618276 0.34002653 -0.5160083 0.6599065 -0.4928935 0.34957215 -0.55979055 0.2147604 0.36934483 -0.49574342 -0.2090962 0.6733083 0.552083 -0.39051324 -0.693721 -0.18115099 -0.2507158 -0.2033327 0.09302476 -0.23477834 -0.012208929 -0.69877905 0.52360624 0.30624098 0.8642974 -0.6770735 -0.9087108 -0.5272429 -0.3001603 -0.7339819 0.19844793 0.7521975 0.8049574 -0.24865581 -0.2400865 -0.25213733 0.3175685 -0.13783789 0.7650864 -0.8272599 -0.16599277 0.038962327 -0.7326417 0.16028573 1.0063858 -0.48664793 0.6220226 -0.051366907 -0.018420666 0.30187964 0.2905083 -0.52434045 0.6215081 0.57012004 0.019969324
22229 0.6106109 0.32356423 -0.26760235 -0.4934732 -0.53287363 1.0688417 1.1120635 -0.8610113 -0.23143026 0.020819603 0.7813076 -0.080587246 -0.5100963 -0.7206018 0.7809138 0.2273341 -0.31913033 -0.5592498 0.3942103 -0.6283825 0.5122604 -0.26472723 -0.31993476 -0.09312388 -0.34041604 0.17180876 -1.1632057 -0.025477283 -0.3762706 -0.2983033 -0.028232291 -0.69038135 0.045745805 -0.5098435 0.049288098 -1.0060221 0.408829 0.25552848 -0.29150903 0.47987136 0.8417163 0.27014458 -0.447498 0.106593974 -0.40061995 -0.87743807 -0.44506106 0.4008853 0.3420325 -0.16559973 -0.0151205035 -0.70438987 0.2801211 0.19628079 -0.45304507 -0.26322252 -0.7939653 0.044432145 0.3497895 -0.12689526 -0.21141908 -0.6844412 0.41227564 -1.0292586
89547 0.12964636 -0.019007724 -0.054048758 -0.32444438 -0.4597095 0.7805843 -0.6733807 0.19227837 -0.24767645 0.52256095 0.4669567 -0.12532386 -0.1193951 0.40168914 0.3297322 -1.1558841 0.21722202 0.0030212945 -0.4876383 -0.47996238 0.6305196 0.10064609 0.4942981 -0.021551043 -0.1519425 0.37700483 0.033151604 0.34373373 -0.27698192 0.04522062 -0.30455518 0.11926245 -0.8498709 0.08898073 -0.555486 -0.53850013 0.19310293 -0.8096095 0.11271638 0.1816021 0.31533778 0.029159391 -0.43892285 0.32287484 -0.3329206 -0.5573335 -0.32452402 0.6114689 -0.40465242 -0.14892834 -0.39965552 0.13216726 -1.005632 -0.9430596 0.17642784 -0.002508353 -0.31764862 -0.5320827 0.08784129 -0.41155776 -1.0792664 0.7622057 0.42461184 -0.046361525
36140 -0.58267075 -0.4658752 -0.20627674 -0.51587015 -0.12543768 0.48558128 -0.104739025 -0.2678258 -0.11988717 -0.057546407 0.42113432 -0.63887596 -0.15243827 -0.73627174 -0.34875873 0.22408892 -0.29303634 -0.81951433 -0.07171258 0.0511491 -0.6017669 0.34869683 0.117413186 0.5660586 0.059497368 0.29350957 0.6462645 -0.95251507 -0.55283237 0.5980654 -0.24728252 0.1017345 0.5743905 0.13412218 -0.64931124 -0.88165957 0.525741 -0.026985241 0.5637196 1.1939596 0.097092666 -0.56214774 -0.35960877 0.4194687 0.20451431 -0.2616465 -0.034028523 0.6628691 -0.33580503 0.57517993 1.1078442 -0.4858495 -0.24173088 -0.25051686 0.05934336 0.23613547 0.04127076 -0.44145563 0.5580492 0.20280255 0.04740177 0.155273 0.1876007 -0.08245004
1956 0.2744079 0.16821411 0.23019241 -0.012139081 0.03692064 0.030663054 0.06896573 0.052858777 0.050258197 -0.29563433 0.91013217 -0.01912191 -0.050738595 -0.21171458 0.90424365 -0.57763517 -0.034039415 0.6855027 0.516751 -0.12042868 -0.41178125 0.16633986 0.21378656 -0.10706415 -0.46333924 -0.928818 -0.59618264 -0.07835022 0.6729008 0.07623451 -0.91855 -0.73185194 0.06431246 0.1861547 -0.19540133 0.0018908788 0.7307181 -0.0029322396 -0.7387369 0.2261869 0.8168717 0.4618427 -0.19430237 -0.3021121 0.03054159 -0.583492 0.2247838 0.0014132876 0.6967091 -0.04914982 0.7968026 -0.11523789 0.79197025 -0.52896804 -0.44427446 -0.0148850335 0.37128824 0.021665946 -0.18953341 0.3763591 -0.06201407 0.35076806 0.8833828 -0.36856058
6910 0.5244317 -0.3871307 -0.21989676 -0.44380826 -0.67889 0.7774456 -0.18179378 -0.39047408 1.3059897 -0.22215153 -0.39811045 0.23762427 0.76059586 0.37347057 0.45890644 0.11938739 1.0226656 -0.5114464 -0.3930318 0.033341877 -0.19449002 -0.017202044 -0.3357189 -1.3788236 0.4877499 0.017643593 0.15690996 0.34150913 0.35542163 0.48593587 -0.16970277 -0.17573276 -0.11803652 0.21958224 -0.8537323 -0.65153164 1.0510383 -0.6480162 -0.511308 -0.61823714 0.09622869 -0.4505178 -0.4651609 0.16125758 -0.22684029 -0.5074564 1.9259924 1.5062734 -0.55821985 0.9850667 -0.052433167 0.067375734 0.21605496 0.6459337 0.0086311195 0.22767565 0.29991996 -0.23841622 -1.3488795 1.3535889 -0.41657227 -0.31922367 -0.5551716 -0.0103478115
6913 0.012243951 -0.5730954 -0.41714904 -0.07699087 -0.62180686 0.6633881 -0.39835772 1.0090516 0.30136275 -0.8545641 -0.1567927 -0.115990214 -0.38084996 -0.22847797 0.4765902 0.6771336 -0.15096927 0.0037596598 -0.5959487 0.2711524 -0.39216006 -0.029710816 0.017284507 0.12982027 0.042774938 0.34206015 -0.01026545 -0.07822032 0.15735993 -0.3145627 -0.111338824 -0.15288287 0.14928928 0.17190455 -0.7027374 0.3256184 1.3039665 -1.5203856 -0.7808817 -0.63293815 0.11081065 -0.3690022 -0.22884633 0.15511255 -0.04899268 -0.64484936 0.4553165 0.8155589 0.08305449 0.9072013 0.1940491 0.12682942 -0.22765584 1.3010343 -1.2291813 0.16418765 -0.0036805875 -0.67859423 -0.54168624 0.7062679 -0.61173767 0.07120847 -0.4521524 0.10524504
31489 0.1936489 -0.92018765 -0.13869731 -0.79837245 -1.1046323 0.93687093 -0.5292054 -0.88068885 -0.20809773 -0.5504237 0.48654452 -0.86118585 1.1555039 -1.0700865 -0.1228548 -0.5183655 0.5233331 0.16227654 -0.7258742 0.6518786 -0.3820559 -0.76039684 -0.083976954 -1.1923655 -0.3597732 -0.0363473 0.2326919 0.11547665 0.39172676 0.81198215 -0.16255166 -0.12671095 0.045185156 -0.0043430887 -0.45271155 -0.7996294 1.1872634 0.93439084 -0.46721905 -0.4064613 0.9652877 -1.2364868 -0.3125565 -0.87006915 0.6146549 0.61615384 1.1551834 1.0111519 -0.53782 1.1871424 0.7852273 -0.57332987 0.57001054 -0.0631065 0.6489229 0.3624137 -0.711478 0.710257 -0.21414222 1.5309484 -0.89785886 -0.58564234 0.45558327 0.6571747
46491 -1.3384464 -0.46155852 0.41629905 -0.67858523 -0.12910903 -0.21983258 0.005071311 -0.85685444 0.44513848 -0.1549198 0.42339525 -0.49265262 0.25730202 -0.7726917 0.63985395 0.4272236 -0.37581158 -0.44350183 0.021538712 0.057351004 0.14853379 -0.07893199 1.3628784 0.6305831 0.87351215 -0.09023241 0.20412476 0.52965856 0.317227 0.2702335 -0.3024637 -0.7144821 -0.5273853 -0.20703728 -0.7430481 -0.93176657 0.1276353 -0.69351536 0.37288186 0.15353383 0.7851471 -0.2761421 -0.18844974 -0.04588091 -0.23748139 0.0809399 0.86534125 0.58868295 -0.37585384 0.44801542 0.9868949 0.15763466 0.09859953 0.05373323 0.28543738 -0.7514402 -0.008812969 -0.4265723 -0.76182705 -1.0334296 -0.31137797 -0.4140236 -0.09914655 -0.36282668
17476 -0.3040268 -0.22228062 0.007276121 0.9263654 0.37672696 -0.13855076 0.10364467 0.17106584 -0.18130653 0.45098945 0.22065546 0.11617968 0.36431628 -0.2989131 0.64287674 -0.20336089 0.10551243 -0.12464911 0.35784444 -0.37484786 0.83173996 -0.24919169 -0.050485488 0.5377985 0.44178015 0.0737924 -0.15947358 0.6050205 0.46669668 0.2923916 -0.13889223 0.3488221 -0.7225748 -0.12044945 -0.3047809 -0.1893197 0.2821691 -0.700212 -0.31001005 0.06378833 0.22323005 0.7899753 -0.25560486 -0.05572307 0.3624753 -0.5506997 -0.042660497 1.0959972 -1.3531909 0.16484746 -0.31327766 -0.50131917 0.16725591 0.31512842 -0.233261 0.5374468 -0.09106983 0.29880926 0.31136853 0.8642103 -0.29569688 0.110436566 -0.15609653 -0.39059895
108047 -0.002549359 0.85505974 -0.23251018 0.38724452 -0.59688795 0.8445593 0.5216094 -0.35606107 0.21360362 0.0034047945 0.765759 -0.9507315 -0.058969032 -0.6328263 0.77723044 -0.14080136 0.2750264 -0.16202804 1.1484714 -1.1155703 0.047659058 -0.07453545 0.37706536 0.15852639 0.55815196 0.10843677 0.07644849 -0.5073696 0.48616922 -0.47929052 0.19625391 0.0865182 0.5983299 0.12360598 -0.123778865 -0.1837096 0.40080583 -0.32733622 -0.8184237 0.01209596 0.25322932 0.6202871 -0.17765613 0.095545076 0.14061141 -1.1241214 0.25962892 0.7573981 -0.08737763 -1.1971456 -0.2312794 -1.4125527 -0.18425173 -0.6419657 -0.32004368 -0.22905962 -0.4493053 -0.027788574 0.33739555 0.2955961 -0.44250417 -0.49796054 -0.057977587 -0.060379177
6184 0.1050239 0.045899108 -0.06252021 -0.3335845 -0.4170533 -0.12716559 -0.15294072 0.22544293 -0.050821844 -0.5381062 0.87196577 -0.4194365 0.52113634 -0.28360686 0.3904073 -0.8987505 -0.3945011 -0.06764722 0.27358162 -0.47525856 0.05713652 -0.39353827 -0.022253633 -0.082445666 -0.16550322 -0.26568025 -0.03079709 -0.25307685 -0.23536341 -0.21603595 -0.16346046 0.6149069 -0.14332965 0.3548348 -0.46682405 -0.13401432 -0.6319031 -0.41376197 0.14735106 -0.28039104 0.242954 -0.18318002 -0.36275485 0.08082781 -0.17004278 0.19463694 0.64219457 0.7984443 -0.69285315 0.120064035 -0.16963999 -0.46966907 -0.06589699 0.22567427 0.20409909 -0.020612929 0.21061659 -0.21546087 0.5208175 -0.3095238 0.23503365 -0.38748947 -0.037874594 0.41891807
5086 0.17039214 -0.8744783 0.23321542 -0.9692514 0.2703916 -0.29316288 -0.7791478 0.21254227 0.08004623 0.54789585 -0.18464026 0.48580915 0.019222733 -0.27129468 0.24286135 0.39566612 0.058030255 0.3119335 -0.10984329 0.95529264 -0.09661179 -0.8083703 0.5122373 -0.09985021 -0.7637706 -0.15531476 0.35203138 -1.5498842 -0.110227354 -0.81954366 0.34910092 0.029334284 -1.2502282 -0.06064794 -0.5988656 -0.32511768 1.2768774 0.009219875 -0.49192327 -0.17160708 0.924654 -0.7208132 -0.6228413 0.23444423 -1.0116479 -1.2270033 -0.51631916 0.6509386 -0.6715875 0.38408056 0.49081343 -0.9180924 0.7001425 -0.12755553 0.28264847 -0.32822102 0.03156777 -0.17669769 0.28262958 0.7680261 -0.37592626 -0.43785846 0.2810382 -0.19092062
3243 -0.57918 -0.21525721 0.15200609 -0.29436198 -0.69092137 -0.2674208 0.3488871 0.6531156 0.68094355 0.6580087 0.37640563 -0.49246624 0.22609171 -0.20251451 -0.33917907 -1.3516285 0.058103707 -0.66393226 -0.3978824 0.054256864 0.3290349 0.26299736 1.2172381 0.16148631 0.5379304 0.6570892 -0.500157 -0.07662746 0.097198725 0.09899914 -0.0024228762 0.16616067 -0.017628964 -0.028267588 -0.64066553 -0.04710135 0.5561816 0.09841758 -0.60080385 0.28335327 0.33898902 0.11967518 -0.09984293 -0.041688755 -0.0035142892 -0.014674952 0.47214773 0.26666772 -0.6495351 0.3771212 0.843822 0.016268212 -0.34245503 0.12926224 0.40736064 -0.23309493 0.7096102 -0.48216957 0.21554153 0.18135835 0.5312851 0.40904653 0.20541531 -0.050937526
202639 0.23598512 -0.089339584 -1.0749418 -0.36473724 -0.55764973 0.34915984 -0.0595419 -1.0573224 -0.26672775 0.35488153 0.093242355 -0.35228693 -0.5994826 -0.03400333 0.47592556 0.0629752 0.32438624 -0.04872208 -0.11732384 0.12103808 -0.26149112 -0.4461967 0.17734416 0.07101957 -0.027323792 0.18043335 0.06542672 0.36470482 -0.18336095 0.4766738 0.4901451 0.96346974 0.07912166 0.18959855 -0.13244498 -0.5594533 -0.48575357 -0.2301561 -0.26988122 -0.50947183 0.40485236 -0.16011666 0.46101955 0.70695096 0.15553069 -0.09754807 0.35865095 0.6168063 -0.09917015 0.29168272 0.564814 -0.9033305 0.6639139 0.66551286 0.37586677 -0.6702996 0.21294859 -0.9063029 -0.2431013 -0.020806612 -0.20732297 0.5910842 0.6023454 0.4808234
3233 0.0035854292 0.29964444 -0.31553236 -0.52476805 -0.32301235 0.32223058 -0.93051696 0.049269747 -0.81120384 -0.42211086 0.46941334 0.007955763 0.16323082 0.36489838 0.52654815 -0.06520909 0.08042679 0.038852442 -1.1240525 -0.7542908 0.0150585845 -0.36469853 0.82113636 0.07732359 -0.38446653 0.42869133 0.41216102 0.12817502 -0.03596565 -0.32751626 -0.31727403 -0.47771072 -0.15594077 0.1957698 -0.735195 0.078664996 0.96768224 -0.47044107 0.64880246 0.89222586 0.60461193 0.1908078 -0.14644957 0.31892335 0.4086345 0.19586177 0.04264385 0.60265726 0.101664566 0.2741757 -0.24760646 -0.11214821 -0.8860102 0.05257873 0.5259497 0.09422158 0.016247716 -0.0691447 -0.29211503 0.7926863 -0.25501123 0.34150472 0.591726 -0.5599405
41714 0.11878604 -0.44934618 -0.31588414 -0.0057645193 0.25150624 0.66681415 0.709366 -0.8283077 0.12090215 -0.15610717 1.3089197 -0.48985627 -0.26099688 -0.53450656 -0.06966304 -0.47478062 -0.16773775 -0.41440246 0.14174476 -0.7175473 0.3690339 -0.13209823 0.31395403 -0.28440085 -0.67049944 0.08425811 -0.757403 -0.25303906 0.7734617 0.061581373 -0.051626828 0.23909788 -0.3358438 -1.0738264 -0.24124207 -0.24815518 -0.03870854 -0.184353 -0.9267854 0.0038166107 1.0332792 0.14124785 -0.11541533 0.40779847 -0.28212553 -0.2406371 0.17321527 0.002418514 0.39263698 -0.24957912 -0.18397105 -0.54537696 -0.53192437 0.06979908 0.36254168 -0.15189251 -0.3502264 0.033894453 -0.3361468 -0.07567861 -0.17480418 -0.25256783 -0.7514871 -0.38515314
79809 0.37683582 -0.09667297 -0.92788684 -0.6325567 1.2342058 0.061664622 -0.4874988 -0.2493794 0.09720405 1.0703913 0.6428852 0.6588871 0.25122648 -0.40170532 0.10423524 0.5289787 0.21571876 0.86265725 -0.14806345 -0.1162813 0.4314583 0.1255794 0.4003018 0.71666867 -0.37089813 -0.60369617 0.37114936 -0.9470644 0.21175747 -0.29187864 0.7159781 -0.033117034 -0.8836285 -0.34335557 -1.2393385 -0.79859674 0.9233014 -0.18883727 0.2035016 0.13932155 -0.44606173 -0.4536119 0.35128736 0.46497217 -0.4597647 -0.8531411 -0.059331074 0.51301366 -0.65542275 0.56390196 -0.18757077 -1.0174458 0.90988666 -0.0011437667 0.21266237 -0.75384986 0.18126966 -0.125663 0.33672115 0.5541488 -0.13457422 0.11922938 0.2844128 0.7108983
20601 0.11077908 0.83189243 -0.059973028 -0.16175665 -0.33702227 0.27379605 -0.07080688 0.14263383 -0.2979899 0.94256437 0.5230326 0.20807652 -0.67288905 -0.511482 0.5827796 -0.1503927 -0.7088978 -0.630492 0.39026743 0.1685331 0.2497274 0.6434252 0.00093311834 -0.22576378 -0.3263003 0.5192656 0.26599833 0.26895097 1.1026433 -0.5701765 0.3075231 0.1592582 -0.2998157 -0.15013488 -2.153194 -0.067115344 1.4162606 -0.2857753 0.058249675 0.23632382 -0.18129785 -0.7113819 -0.4940023 0.8332633 0.103729695 0.80831885 0.6698267 0.4690651 -0.638636 -0.36872295 1.0893582 -0.9884716 0.1092091 0.14768863 -0.055227716 0.44036144 0.41331753 0.2066418 -0.7463267 -0.35799497 0.02907183 0.64474046 0.11175251 -0.7128382
57119 -0.74993664 -0.14550507 -0.36889806 0.36914143 0.53461987 0.90300703 0.15349446 -0.29149064 0.7716889 0.55896837 -0.34571737 -0.66592014 0.490977 -0.66675925 0.31556398 -0.2968613 0.87247974 -0.16505769 0.10502959 -0.28492308 0.098891735 -0.509292 0.58558834 -0.23952171 -0.23758398 -0.2320724 -0.15001886 0.6820106 -0.02874591 -0.3345404 -0.40112647 -0.11623558 -0.16549991 -0.923144 0.07513924 0.06754026 0.2257492 -0.3093573 -0.45108673 0.5129382 0.73348916 0.3664588 0.19483154 0.44159624 -0.1272542 -0.85215855 0.4184469 1.401685 0.12816653 -0.38550538 -0.38242024 -1.4720601 -0.47255707 0.30614588 -0.98675555 -0.050263725 -0.72230804 0.7839547 0.61312914 0.071191475 0.5246347 -0.10804139 -0.18738846 -0.50807613
153063 -1.0743974 -1.0588869 0.28816178 -1.6341387 0.27184469 1.6828966 -0.78601164 -0.087111324 -0.39174536 1.1674945 -1.1502895 0.64588183 -0.2256234 -0.49411702 1.7660285 -0.34418216 0.13779739 -1.1101713 0.3427088 0.7088108 0.061302967 0.29177478 0.07336571 0.31151417 -1.4085411 -0.22451048 0.20245817 -0.9380754 -0.44209173 -0.63675827 -1.0087847 0.6835002 -1.3997424 -0.5804606 -0.7424881 0.7424985 0.23341705 -0.48672694 -0.06859946 -0.42653987 0.53240436 0.6111787 -0.35111964 0.10776491 0.0032613846 -0.66355336 -0.52427953 0.3639043 0.11393618 0.40940812 0.48250273 -0.89726627 0.33271137 -0.08289753 -0.9681436 -0.33935714 -0.32069716 -0.5514098 0.2920992 1.4504633 0.36097986 -0.3844049 -0.41884285 0.6190161
123825 0.3057256 -1.0052767 -0.19444512 0.06657341 -0.78965807 0.41198567 0.2314639 0.5162892 -0.6637723 -0.5247844 -0.1925662 -0.35566017 -0.01864707 -0.29897937 0.2236351 -0.6994078 -0.5721276 -0.26014376 0.6496808 -0.11524462 -0.31370077 -0.39179313 0.09327094 0.1734532 -1.312836 -0.3584471 -0.04739676 -0.2519956 0.15953141 -0.60243475 0.06655035 0.62734264 0.4278392 -0.24079792 -0.9139377 -0.9619616 0.5092842 -0.19748048 0.38770652 0.47247845 0.13070247 0.29738197 0.077533774 0.1264787 0.06963999 0.20190524 0.68138736 0.78028554 -0.1767037 0.8645906 0.10248511 -0.14041919 0.109859936 0.6497896 -0.12727861 -0.5805873 0.18387514 -0.09118421 -0.12797694 -0.78725237 -0.10156875 -0.588041 0.6086098 0.48366648
45605 0.22249918 -0.3258928 -0.06431728 0.20006968 0.32745937 0.41330215 0.58763933 -0.3278352 0.07755429 0.32176498 1.1960917 -0.5644683 0.11035215 -0.58879673 0.12547141 -0.55483675 -1.3835448 -0.6722751 0.05335941 -0.42756313 -0.07242039 -0.17118257 -0.25014642 -0.86313426 -0.7688178 0.51991147 -0.7147709 0.26266366 0.65673083 0.33000138 -0.5158297 0.18305083 0.1339046 -0.3405605 -0.29982257 0.1934026 0.08397693 -0.7734471 -0.279265 0.25704294 0.94284815 -0.33735895 -0.054681655 0.7517428 -0.29958683 -0.5408159 -0.30641893 0.464678 0.48987827 0.14709325 -0.48560056 -0.33808017 -0.23419595 0.48619425 0.730435 0.14700264 -0.8462083 -0.5945695 -0.5205098 0.25226066 0.24347635 -0.1721347 -0.021590788 -0.47707707
205196 -0.34210366 -1.2073323 -0.28977042 0.53327876 -0.708988 2.0305054 -0.78688824 0.7772774 0.7675704 0.39290783 0.6232604 -0.5543628 0.04422332 0.0012000683 0.73750377 0.20907898 0.16619863 0.75834167 0.48353335 0.14270473 -1.1018374 -0.9440337 -0.09021107 0.16529156 -1.2542996 0.7007796 -0.7949273 0.32722586 1.3794749 0.038595438 -0.620527 0.3450833 -0.04212106 0.72376037 -0.020574845 -0.08421015 0.07191159 -0.78960574 0.25082058 0.20138831 -0.018275531 0.67688596 -0.43861455 0.48142323 1.1748732 -0.90142626 0.24074924 0.55530757 0.20347434 -0.02484642 -0.06344681 -1.222761 -0.76534474 0.5675282 0.6578666 -0.24598111 0.61656564 0.14776517 0.54545367 0.9452782 -1.2822973 0.6919024 -0.6780455 0.46749544
10531 -0.61368257 -0.99974287 -0.16384599 0.5215168 -0.64824307 1.0841049 -0.5420962 -1.006985 -0.56877244 0.19140148 1.1284751 0.32673302 1.053909 0.7614524 0.13065162 -0.1178738 0.36669743 -0.034220822 -1.2483971 -0.08439989 0.75806946 0.34798673 0.29149827 0.31637198 -0.12796006 -0.029115358 0.2301651 0.34939247 1.1861761 -0.24788442 -0.17050242 0.55971867 0.6603238 0.34265053 -0.76087224 -0.30964988 0.40323192 -1.3292872 -0.6952162 0.40773135 -0.5975384 -0.2865598 -0.060267925 -0.27316147 0.2407235 -0.27163887 0.12534772 0.68638647 0.5316362 0.41141558 0.8837293 -0.26455855 -0.04854462 0.30303812 0.3858807 -0.43198845 0.61878777 -0.60645777 0.68289953 0.29995233 1.0438267 0.73103553 0.15566774 -0.6724185
28287 0.2955402 -0.14819357 -0.7426469 0.13881369 -0.50778943 -0.12805612 -0.01620693 -0.4800769 0.20466125 0.18539712 0.2729333 -0.038424682 -0.40752363 -0.9708201 0.4260223 -0.79636794 0.2830551 0.4764543 -0.8361419 -0.01323382 -0.20589395 0.2940862 0.21505243 0.14773174 -0.41237608 -0.7090099 -0.5192329 0.14523263 -0.113125205 -0.22526118 -0.24743581 0.031282656 -0.49945134 0.25701165 -0.3673427 -0.32540226 -0.39909053 0.28876373 -0.0694751 -0.17226453 0.70647496 0.35586613 -0.73970467 0.12630361 0.06500084 -0.9270504 0.7370216 0.1999298 -0.68473804 0.6820297 -0.14576925 -0.47566533 -0.76137453 0.044914994 0.1773985 0.12236414 0.40529147 0.11557326 -0.08782481 -0.17982003 -0.36495256 0.20063993 -0.05212246 0.025386192
56115 0.017574294 -0.28030398 0.23368438 0.49294856 -0.5160394 0.5564851 -0.120351605 -0.6217846 -0.1823927 0.4993386 0.5848223 -0.74357814 -0.227126 -0.53359765 0.7931214 -0.4240813 -0.24759953 0.41773394 -0.17789659 -0.19595711 -0.35574788 0.28202373 0.19997053 0.24123317 -0.18238844 0.272441 0.35833323 0.25257432 -0.26258138 -0.4253046 0.2964561 -0.19014022 0.43675563 0.4066265 0.050898395 -0.3647405 -0.08260542 0.35386154 0.005014999 -0.6732705 0.56658286 -0.30169648 -0.4254833 -0.22560099 0.086222365 -0.8160116 0.98022145 0.27876842 0.5206597 1.1781414 -0.5648944 -0.8201704 -0.85942316 -0.4260917 -0.24190392 0.55901456 -0.26003146 1.1524227 -0.32419384 0.26503158 0.4321348 0.42002493 -0.67602265 -0.18741755
103515 0.06596225 0.6884845 -0.26755303 0.30656958 -0.54840624 0.4377326 0.089177296 0.03191343 0.28361887 0.67039645 1.0438339 -0.2841438 -0.22749756 -0.5798902 0.8439795 -0.28754315 0.7497576 -0.42990476 -0.15925035 -0.43372256 0.60829955 -0.40886685 0.27055874 -0.47721767 -0.40469563 0.28127065 0.34083727 -0.32886875 0.46668494 -0.0017033943 0.11763969 -0.70525014 0.61066806 -0.11612324 -0.09009771 -0.7799913 0.11721492 -0.35061616 -0.08470389 -0.38312054 0.92351866 0.6504146 -0.5429561 0.5512647 -0.17213786 -0.6584889 -0.00012913304 0.19459745 0.44505298 0.18213785 -0.081124514 -0.69515824 -0.08045254 -0.36311597 -0.31368297 -0.80792266 -0.636076 -0.20534483 0.16080603 -0.033923723 0.30982798 -0.45345345 -0.5023742 -0.25890827
10183 0.39989373 -0.91067064 0.43474242 0.46481764 -0.013327575 -0.1331898 -0.045470238 0.015048985 0.20638786 0.8735792 0.9019229 0.89720774 0.4182425 -0.34643716 0.7860145 -0.5852513 -1.4601194 -0.052312747 0.6483003 -0.4902349 0.07166355 0.21930428 0.6043719 -0.3384427 0.5282766 0.67120665 0.2300756 0.3569859 -0.5273275 0.67787397 -0.20464323 0.11772631 0.47742563 0.82443243 -0.6696328 -0.42468154 0.25386536 -0.57588387 -0.29518515 0.10719757 0.9058746 0.6496618 0.5882434 0.21077663 0.3407884 0.7232872 0.6400784 -0.21621488 -0.57860035 0.6724203 0.013989731 -0.44403437 -0.24847487 0.08767131 -0.64112175 -0.7186046 0.5148983 0.8154896 -0.31808212 0.49558067 0.07167075 -0.4872746 0.709364 -0.08693797
16008 -0.09333346 -0.1827759 0.08856986 -0.25304475 -0.19289014 0.43975753 0.23153557 0.5833371 -0.34963852 0.28217018 -0.4692801 0.54255456 0.14162873 -0.49606442 0.20775393 0.6012856 0.35633534 -0.13349557 0.13801144 0.14948224 -0.24252953 -0.6423367 1.1421158 -0.58659387 -0.085248075 -1.1532773 0.18750057 -0.76814616 0.35869566 0.0020060693 0.5564478 -0.3782028 -0.35029918 0.32480183 -0.084957436 -0.9418802 -0.14509207 -0.6165316 -0.37352622 -1.2378066 0.549435 -0.66533023 -0.04262831 0.09853823 -1.0625004 0.61267954 -0.39526054 0.87909067 -0.414679 0.41936556 0.5460816 -0.8169328 0.3689028 0.29385343 0.10314444 0.3169344 0.27228332 -0.03512842 0.53952724 1.0912807 0.33067328 -0.68618566 0.5351319 -0.30050793
287787 -0.30142683 0.015382528 -0.121481024 0.652803 -0.25728062 0.9482129 0.50413245 0.2883308 0.48578086 0.22140953 0.82298523 -0.4758658 -0.1173249 -1.0402968 0.6528055 -0.3302912 -0.21076125 0.6088647 0.074705586 0.15164661 0.33201012 0.024095327 0.26763836 -0.21510528 0.2895929 -0.48219404 -0.23655605 -0.26292446 0.19321485 -0.066246085 0.017774101 0.44035488 -0.5628722 -0.117754206 -0.7349275 -0.34442797 0.053583235 0.10499308 0.37144208 -0.0088807605 0.9870077 0.13170055 0.23917048 0.36420774 -0.14606711 -0.7993069 0.21964662 0.17213906 0.56631976 -0.22987063 -0.45368284 -0.20621212 0.0044237906 -0.43019992 -0.11020096 -0.6967971 0.0614782 0.59058666 -0.059560973 0.3563342 0.69625145 -0.11664367 -0.36448005 -0.40804523
84021 -0.7285329 -0.015393843 -0.115197115 0.978745 -0.0684813 1.0644468 0.70791847 0.05998359 0.53301597 0.417639 0.78902996 -0.28416562 -0.1541214 -0.5468811 0.5170564 -0.10607129 -0.35017127 0.6652395 0.5730961 -0.2692153 -0.36747047 -0.3315859 0.09147767 -0.1451462 -0.13319242 -0.38292396 0.16283156 0.028874386 -0.24409166 0.26879972 -0.49451485 -0.6883959 -0.29645205 -0.51629764 -0.40564203 -0.43565568 -0.16886708 0.3521897 -0.48576874 -0.4221367 0.539378 -0.11166781 0.10071162 0.29582846 0.20240317 -0.19828473 -0.063256346 0.21569024 0.31570864 0.20221369 0.41090748 -0.57168645 -0.37661397 -0.6451716 -0.53313154 -0.36272904 0.21806106 -0.18530303 -0.11425945 0.10967952 0.30666813 0.33469138 0.24804565 -0.48703328
6163 -0.23573883 -0.04155095 0.0869988 0.01367288 0.08846707 -0.12201122 0.43956405 -0.2632901 -0.055372383 0.7301179 0.3384638 -0.36545777 0.026172733 -0.63374263 0.031065993 -0.100839384 0.26793593 -0.4760901 -0.7900903 -0.1916579 0.008071662 0.038311057 0.47709188 -0.4948365 -0.29591814 -0.2726813 -0.97400016 0.01609047 -0.1959065 -0.121259026 -0.12609118 0.129841 0.05008539 0.92936707 -0.5225239 -0.17422825 -0.1291441 -0.2986112 -0.67315584 -0.1296676 0.92581195 0.48575768 -0.67018956 -0.639374 -0.33380818 0.018700127 0.5002565 0.41799855 -0.7673592 -0.4223842 -0.22323164 -0.43591213 -0.49555227 0.84535766 -0.7083711 0.04669887 0.83743685 -0.3616734 0.50349087 0.2803904 -0.5138851 0.48898134 0.68129563 -0.18286127
14062 -0.23788476 0.30785215 0.13558055 1.0773581 -0.62813354 0.9978555 0.83140105 -0.13084109 0.06936801 -0.039165054 0.57803905 -0.05077174 -0.73954344 -0.24479139 0.0994081 -0.19015665 0.20525198 0.31518155 -0.3011679 0.39662352 0.66707355 -0.6083303 0.051211566 0.35618252 -0.65980303 -0.69325525 0.29218394 -0.47134176 -0.47330782 -0.43229446 0.052625723 0.02355884 -0.5735114 0.5415903 -0.78648335 -0.9364705 -0.046327226 -0.360871 -0.07776213 0.1856287 1.234098 0.11608483 0.2865858 0.86920196 0.29072976 -0.3411137 0.23487377 -0.30648115 0.7223785 -0.22681023 -0.19717242 -0.71251696 -0.22124398 -0.009744055 -0.22655046 -0.32953176 -0.3606635 0.0921991 -0.6206058 0.73915815 0.24066104 -0.070617065 0.2967737 -0.7156
6935 -0.10346527 -0.14729789 0.8814387 -0.36916253 -0.12655361 -0.102178685 0.16738999 -0.879443 0.20947757 -0.16305855 0.9083756 -0.09893501 -0.023265807 0.17424813 0.21107519 -0.036641598 -0.09748225 -0.20533732 0.26057595 -0.91544795 -0.08199022 0.087866075 0.84078234 0.15944853 -0.010488453 0.17269233 0.47395936 0.18021733 -0.17362042 0.6726438 0.7749272 0.5148249 -0.39429185 0.29742825 -0.48216093 -1.2692909 1.7180007 0.062190663 0.15059562 -0.063467555 0.27493435 -0.2004876 -0.3739193 -0.18438536 -0.22839464 -0.4609298 -0.2540339 0.035145607 -0.0028932898 -1.0049647 0.6474232 -0.63942564 -0.5799747 0.5491807 -0.22599827 0.62730074 0.66747767 -0.3880584 -0.5835864 1.0387807 0.4163524 0.20954597 0.34864008 0.77624524
112378 -0.9954883 -1.0159403 -0.022910144 0.09720369 -0.2721318 0.5768125 -0.7057301 -0.60253006 0.06792306 0.09832411 0.81534076 -0.2822759 0.3500459 -0.101816475 0.22760224 -0.30951622 -0.6795772 -1.2059654 -0.19567303 -0.6325074 -0.536655 0.82264334 0.23396021 -0.026129277 0.75385696 -0.07415966 0.9483608 -0.42363045 -0.6168335 0.30341244 0.38775137 0.23959184 -0.13436878 -0.15312387 -0.6094871 -0.7604162 0.48719126 0.37051752 0.54077953 0.5529112 0.24229759 -0.08950698 -0.3102374 0.38411856 0.5489655 -0.5834726 -0.2474675 0.5190486 0.00028411657 0.19296649 0.43370867 -0.31203383 0.10654975 0.103329174 0.2655535 0.38703808 0.3121801 -0.17537211 0.7453743 0.27464467 -0.14347476 0.08128215 0.37269792 -0.35070467
1997 -0.17930326 0.39607885 -0.69582355 -1.0639504 -0.6849391 0.487862 -1.142118 0.15316914 -0.21113172 -0.6475659 0.19926225 -0.19036202 0.23751953 -0.22720622 -0.16477886 0.60336 0.3190321 0.13906811 -0.24761459 -0.8891491 -0.1361724 -0.57451576 0.6588821 -0.189239 -0.3867295 0.65621644 0.42081562 0.24664448 -0.35756627 -0.051188968 0.37847674 -0.19692688 -0.4801709 0.11624311 -0.43789068 -0.09386041 0.8620484 -0.52771896 0.69770825 0.43050274 0.62613326 0.03985892 -0.29078832 1.0177835 0.22963406 -0.3547452 -0.1250074 0.36772022 -0.15874293 0.26497716 -0.36364064 -0.22624993 0.4173301 -0.019214524 0.07915271 0.7780087 0.021766534 -0.18967395 -0.17098546 1.0911355 0.11207843 0.18458134 0.5229487 -0.38443902
32083 0.2748243 0.27711937 -0.26727363 -0.80759436 -0.6578874 0.5063531 0.20750926 -0.6613779 0.5133219 0.5064765 0.50810885 -1.0917664 0.36005613 -0.4340318 -0.52746654 -0.7650363 -0.9324504 -0.8218423 -0.26919386 -0.39222685 -0.404098 -0.15581647 -0.18066269 -0.7139526 -0.42984843 -0.0800444 -0.30189815 0.5227414 0.05216847 -0.014322594 -0.34975347 -0.18194863 -0.24271375 0.26626384 -0.5057653 -0.15897189 0.07517088 -0.6152244 0.14402732 -0.18107344 0.5334329 -0.1575117 -0.014020564 0.16583021 -0.003317721 -0.8099488 -0.0022547254 0.24092191 0.51519173 -0.016233526 -0.25540796 0.018581983 -0.048133373 0.3027835 0.7765157 0.79839516 -0.16592257 -1.0663425 -0.29021707 -0.27105543 0.4414303 -0.11482044 0.3528443 -0.11717712
6818 -0.29907164 -0.026803382 -0.49600792 0.24994715 0.24261673 0.82475877 0.61279494 -0.012805535 -0.31068948 0.07976594 0.19686757 -0.17997782 0.43752012 0.12999825 0.37558782 -0.862183 -0.10829003 0.39629084 -0.53781015 -0.1490206 0.2276177 -1.3135487 0.16239695 -0.092013545 -0.0023769487 -0.26925132 -0.24763535 -0.4610062 0.6831239 -0.04350902 0.6546283 -0.57567143 -0.29855222 0.30635646 0.74685806 -0.5243722 0.115853004 -0.508614 -0.28407893 -0.6216053 0.13020538 -0.477951 -0.16693608 1.2042518 -0.25980663 1.0121644 -0.47726643 1.1196755 -0.63068366 0.8246743 1.0841731 -0.40730613 0.4874203 0.52257967 -0.18795875 0.85628164 0.6758613 0.28209755 0.33789554 0.6231569 -0.14082429 0.38675964 -0.5353881 0.20333903
1959 -0.16061011 -0.17116746 0.48465684 -0.46334633 0.51796603 0.35481763 -0.05537501 0.26354724 -0.40604645 -0.35728726 0.16229716 -0.27192795 0.2186493 -0.16704468 -0.06841524 0.15581354 -0.18796015 0.24244131 0.46233255 0.116308644 -0.035961762 0.5383357 0.78161263 0.70968086 0.03152715 -0.7998592 -0.7976057 0.2471634 0.46271253 0.5733623 -0.2974894 0.38161668 0.1943434 0.032242134 -0.3078167 0.38552296 0.6746478 -1.1004481 -1.1524234 0.25267664 1.8512783 1.1159433 -1.0189656 0.06738065 0.22092475 -0.42596427 0.49183348 1.1934174 1.327615 0.13344637 0.59611845 -0.47523028 0.6797795 -0.24485537 -0.33085686 -0.16759956 0.624323 0.09259473 0.4828132 -0.08308287 -0.15214288 0.1029694 1.0157127 -0.75980437
77758 -0.2965709 -0.5998515 -0.5246416 -0.4571953 -0.5054636 0.17114797 0.29393953 0.19038415 0.2353748 -0.1736193 0.6803564 -0.52902526 -0.132973 -0.28146523 0.41185552 0.7202568 -0.454142 0.2380386 -0.41082042 -0.7310428 0.6393084 0.07243089 1.1269232 -0.7138278 -0.37899733 0.45714045 -0.048805326 -0.57608014 0.055353705 -0.5368624 -0.12380946 0.85818547 -0.60011154 0.0904248 0.042861257 0.27565098 0.5284304 -0.37469217 0.43385708 -0.020613385 -0.122090615 0.49286535 0.76678145 -0.5009044 0.27397352 -0.28307226 0.40124717 -0.019038131 -0.13553208 0.75794953 0.17334227 -0.11912202 0.2298836 0.07250315 0.55344015 0.20212169 0.29357058 0.19824024 0.25778228 0.3290983 -0.22713225 0.19116229 0.7332517 0.4001581
40151 -0.50518066 0.0070558004 -1.1408943 -0.2777269 0.06928204 0.85491294 -0.43429655 0.641302 -0.956375 0.070414536 1.003599 -0.12491785 0.36977524 0.1529603 0.34238452 0.0544087 -0.44372836 0.19669512 0.33309972 -0.45664755 -0.06996721 -0.13892414 0.34503025 -0.23595922 0.71077186 0.43136328 -0.5965168 0.4244637 -0.38887542 -0.5191545 0.6570713 -0.30873945 -0.73871005 -0.10101355 -0.6163908 -1.2892463 -0.68849856 -0.14892206 -0.01864335 0.49025527 0.3898418 0.29294848 0.6302213 -0.43273982 0.19587113 0.32963675 -0.0112106195 0.53570676 0.24608444 0.31260264 -0.22179957 -0.7869755 0.95025635 0.12081298 0.08669985 -0.27614045 0.7617012 0.26715228 -0.71120983 0.46419024 0.16856651 0.5618743 -0.39736953 0.04045395
503883 -0.81015456 0.015382831 0.5301955 0.42341378 -0.47918254 0.8936399 0.50546765 0.18469134 0.40507475 0.028785942 0.5232624 -0.62831897 -0.14869177 -1.2796959 0.75368243 -0.45885864 -0.010466643 0.804177 -0.8295643 0.17675737 0.3092017 -0.45018357 0.062387653 -0.31796178 0.10640738 -0.14581327 -0.19447511 -0.848332 0.23745708 -0.5504062 0.077060625 0.5572303 -0.08823886 -0.25142655 -0.75158614 -0.2814344 0.15295644 0.04480406 0.30837592 0.10937404 1.1026442 0.3877532 0.21049584 0.7165903 0.1468084 -0.52909595 0.24387744 0.2589946 0.7114644 -0.21871768 0.009984073 -0.40295103 0.2546991 -0.61527 -0.46438503 -0.27959764 -0.3644713 0.37708858 -0.37945914 0.2057857 0.46417683 0.35253847 -0.20778956 -0.7641589
8594 -0.2968692 0.92632633 -0.90737957 -0.44637406 0.5939789 1.2076279 -0.593717 -0.829817 -0.2494772 0.016497504 -0.3387608 -0.6098578 -0.15237513 -2.51729 1.2973444 -0.87873334 0.5380444 -0.3736512 -0.03266293 0.21013443 0.9814966 0.39440122 -0.31324562 -0.33017725 -0.5539889 0.8515904 0.46611708 0.5335221 0.89700747 -0.13600774 0.19966705 0.42996812 -0.60586345 1.2463529 -0.14577453 -0.16049787 1.410257 -0.5443422 -0.56008744 0.64752066 1.5304834 0.95654213 1.8867462 -0.057303738 0.26339376 -0.48432112 0.052109785 0.26462078 0.22244649 0.5974602 1.731983 0.42380276 -0.5056153 0.64718556 -0.20690459 0.28018042 1.1150376 -0.13099572 0.8473115 0.6851012 0.62130374 -0.72046846 -0.13230088 0.77293605
77438 -0.034375127 0.23823331 -0.6040489 0.09337843 -0.20520654 0.2925504 -0.4556313 -0.4927133 -0.94339657 0.2385445 0.09325072 -1.9159284 -0.05752068 0.14007899 1.2740221 -0.47412455 -0.640919 0.3806143 -0.22273636 0.5826957 0.8563199 0.015117726 0.66439027 -0.16946219 -0.049553823 -0.6369314 0.35312074 -0.85684043 -0.28302738 0.47668645 0.11299937 -0.14457068 -0.82025415 -0.13748439 0.13690197 -0.5322149 0.9026546 -0.7634207 -1.0502375 -0.5793637 0.6720659 -0.7475395 -0.2288109 -0.10978548 0.18567367 0.8433516 -0.20017654 0.579754 -0.19554934 -0.5201109 -0.094895035 -0.060751036 -0.013332021 0.5571334 0.16617505 0.84345806 0.424451 -0.006153995 0.8075363 0.516013 -0.6731238 0.19820343 0.14761265 0.05813356
6209 0.056602 -0.27718326 -0.58946866 -0.014284028 -0.046841137 0.31224462 -0.29391345 0.44215283 0.26744086 -0.66930145 0.33043125 -0.124470636 -0.1893897 -0.5935356 0.14430676 -0.2933709 -0.0030894906 -0.43457785 -0.45722783 -0.23781559 -0.052870132 0.24963707 0.65844834 -0.49083653 -0.3605442 0.011639887 0.8669707 0.010190502 0.10034808 0.77637935 -0.23726487 -0.122804545 -0.6338998 1.0789462 -0.65685433 0.1983392 -0.64090294 0.43992227 -0.4618997 -0.38561 0.8651485 0.6149472 -0.37465408 0.2954955 -0.40375063 -0.2563718 0.30212638 0.7692124 -0.20171326 0.13378625 -0.4704203 -1.374638 0.5468368 0.79638135 -0.89440465 0.6110782 -0.33851406 0.21353497 0.095087714 -0.71030736 0.15242721 1.0116066 -0.46488935 0.20827246
12330 0.2781474 -0.22602947 0.24460493 -0.6873397 0.538622 1.3455302 0.6347377 0.46787745 0.42262813 -1.1627885 1.3456765 0.39004564 0.568175 -0.9833801 0.25566313 0.27365988 -0.09280648 -0.32408947 0.44485667 1.219916 -1.2940011 -0.65182084 0.9734795 -0.0127316015 -1.4386488 0.42847738 -0.7179988 -0.6046273 0.5317852 0.36495447 0.39184737 0.25403273 -0.35881206 0.61032414 0.20825216 -0.7339254 0.67213446 -0.6193116 -0.17441547 0.21509999 -0.24224102 -0.11279864 0.21767862 0.7505122 -0.3851654 0.50452256 0.5091225 1.1009834 -0.22150992 0.117200844 -0.4344495 0.060536124 -0.64353406 0.6077329 -0.005058107 0.37845662 -0.13787311 0.18177794 -0.43164712 0.8098639 -1.1874025 0.40323213 -0.37647358 0.30044377
5064 0.029963333 -1.4541888 0.40305436 -1.0847609 -0.14951678 1.4068829 0.030978836 0.87525433 -0.64187086 0.3239758 1.7626616 0.39513296 0.50637025 -0.8147099 1.2516654 -0.76539284 -0.5188913 -0.57447064 0.46656784 0.19366875 1.2435687 -0.25835383 0.69962394 0.71020836 0.8324893 -0.33586282 0.916585 0.044141956 -0.09693455 -0.517142 -1.0078999 0.022073008 1.3234104 1.7620243 0.19976878 -0.14900999 -0.32437986 -0.90149117 -0.0049479464 -1.2078005 0.81929094 0.44291723 -0.40803272 0.41325447 0.027293717 -0.71565497 0.28892463 -0.6378295 -0.49891 0.117764965 0.39826372 0.17984994 0.29436913 -0.75469834 -0.091448225 0.8862181 1.0994817 0.5402585 -0.7953848 0.53533584 -0.68193805 0.25683734 0.23030151 -1.0646687
12195 -0.15195408 -0.3252352 -0.56023276 -0.40962565 -0.88624364 0.92302424 -0.4767207 -0.08836226 0.8093139 0.53277504 0.57081366 -0.034588948 0.047548845 0.8403473 0.82660085 0.07794519 -0.14099008 -0.42910057 -0.008840116 0.2694034 0.544876 0.3654325 -0.1083047 0.32879746 0.11014543 -0.2489357 0.70439714 -0.10191393 0.47197998 -0.2074008 0.4099307 -0.1307317 0.08807052 -0.4782521 -1.530922 -0.42438018 0.8175901 -0.42654517 -1.3303604 -0.7079377 -0.16628724 -0.5233198 -0.36023617 -0.07669753 0.29064614 0.44183412 0.097123265 0.48853487 -0.49837947 -0.061639518 0.11024229 -0.50757706 -0.2833414 0.17099373 -0.14446409 0.5582735 -0.7251793 0.32593203 0.43113524 -0.024825295 0.66864616 1.0959241 0.31203994 -0.47552785
45189 0.1086326 0.14549628 -0.13291286 -0.32554638 -0.5402125 0.7141057 -0.95640165 -0.17028984 -0.102591895 0.3097263 0.779379 0.20356055 0.03394989 0.10665439 0.6043643 -0.69073874 0.009582411 0.14613089 -0.1814224 -0.40161037 0.76702654 -0.26950085 1.0019112 0.28904757 -0.27506617 0.78434795 0.29473248 0.057550024 0.026089406 -0.41380152 -0.577801 -0.49466664 -0.74943197 -0.45732325 -0.72064906 -0.34264413 0.6573575 -0.5009797 -0.1072557 0.47355172 -0.1729825 -0.01904303 -0.08386225 0.39375183 0.19941597 -0.30678475 0.105071224 0.9683542 -0.59295005 -0.17913589 -0.3221473 0.629732 -1.1689622 -0.45469317 0.39219332 0.1294369 -0.29468003 -0.42364034 0.1456549 -0.3013551 -0.6018437 1.0107123 0.826095 0.35705972
10798 0.2227955 -0.09415308 -0.003551997 -0.35987836 -0.18960784 0.3744431 0.012333447 -0.2537012 0.1879486 0.4678357 1.0298251 0.3610131 0.47092637 0.03451872 0.35154712 -0.7149558 -0.6739424 -0.19159716 -0.13720432 -0.8976922 -0.48140898 -0.11159064 0.42203635 0.2549313 0.13263258 0.29550582 1.0957955 0.42000276 -0.69857764 0.61887985 0.28581238 -0.081419155 -0.23427998 0.9022561 -0.42267534 -0.0023194405 0.1946962 0.291572 -0.46454406 0.06319507 0.448437 0.9877603 0.21485667 0.13165489 0.07950716 0.47733903 0.31715333 -0.15820454 -0.12636703 0.13270906 0.08669487 -0.16844296 -0.49444097 0.30477023 -0.46467742 0.28060234 0.1923026 0.327978 -0.065424286 0.11101253 -0.0893943 -0.48204675 0.76605463 -0.47071058
27627 0.73317933 -0.35042888 0.0037174209 -0.7722014 0.034152366 0.03713337 0.44820523 0.90085995 -0.43484914 -0.12883888 1.0039467 -0.48671967 0.36003742 0.6471252 0.8059625 0.11624421 -0.4536426 0.22737676 -0.23952837 -0.8563318 -0.10847202 0.03111516 -0.205301 0.5930632 0.14324966 1.0076039 0.6066037 -0.1256278 -0.59395295 -0.114150584 0.77121466 0.28811044 -0.950033 1.1287167 -1.0096468 -1.1159476 -0.45402893 0.112936504 -1.0154439 -0.48267606 0.00062058197 0.23029733 0.4888402 0.41371349 -0.5328536 -0.3538855 -0.48123714 0.21408325 -0.67710716 0.9290669 0.31422165 -0.76574713 -0.33175567 0.13292156 0.21086112 -0.18572983 0.028213453 -0.13422151 -0.33739644 0.5104803 -0.45991746 0.09424269 0.1421853 0.27801752
645016 -0.030521894 0.8968357 -0.070554845 0.37120366 -0.49557287 0.5156957 1.7457592 0.4142583 -0.5968023 -0.31325692 0.12796772 -1.2279618 -0.11209793 -0.3085373 0.32946473 0.90748453 -1.3202778 -0.9426943 -2.118276 -0.67240846 -0.65929675 0.41749418 -0.49621737 -0.56490004 -0.68597025 0.17350459 -0.14200367 -0.3492758 -0.25452694 0.04799121 -0.65946186 -0.8742139 -0.884335 1.0391036 -1.8195838 0.38545442 0.37680322 -1.9925735 -1.7506708 -0.89928263 -0.56400687 0.94972515 -1.0772218 0.21319017 -1.2930987 0.1158547 0.5844399 1.4062984 -0.07230757 0.0058126366 1.385952 0.07074827 -0.0396705 0.14485423 -0.4326831 0.08240002 -1.5800798 1.3484296 -0.535791 1.369474 0.326258 -2.4239798 1.0127976 -0.8078598
7419 -0.5948286 -0.21667096 -0.0076495428 0.31885552 0.043511085 -0.28187525 0.07386258 -0.5916298 0.09091244 1.1829962 1.0082127 -0.6469176 -0.043770466 -0.42464325 -0.029573772 -0.120840944 -0.036794763 0.19400018 -0.32963064 0.2795695 0.47649977 -0.14935343 0.22385955 0.02413508 -0.06814117 -0.08152327 -0.5351726 0.119713515 -0.30202973 0.023748072 -0.37108016 0.085060686 -0.587282 1.0926468 -0.48958236 -0.7651631 -0.20266923 -0.44103777 -0.25105104 0.009320871 0.13012479 0.43035373 -0.58762395 -0.43183225 -0.4314791 -0.26325935 0.16793111 0.68914837 -1.1223328 0.30259874 -0.75299007 -0.2593263 0.19867529 1.048504 -0.5609308 -0.35444108 0.016242182 0.11091548 0.5220351 0.38424417 -0.97522104 0.45008278 0.1997225 -0.3190848
3085 0.24064243 -0.41043255 -0.31107596 0.029171323 0.09923094 1.1797739 0.4558233 0.36492983 -0.40089688 1.2095783 1.2541653 0.4655644 0.09801359 -0.6430357 0.22107832 -0.5890478 -0.39451662 0.05432698 0.036827784 0.21508135 -0.4092497 0.2943879 0.5249637 0.16828385 -0.04863416 0.02044737 0.3471944 0.24406026 -0.03483616 -0.3979831 -0.529965 -0.1928283 1.281226 1.385285 -0.039764307 -0.46161836 0.419939 -1.0978097 0.047139686 -0.084949195 0.96508133 -0.028384216 0.53987175 -0.2736369 -0.25277 -0.66379035 0.74644464 0.20264418 -0.5107916 -0.65456146 0.52678174 0.6444655 0.7299828 -0.08912825 -0.14775418 1.41235 0.28085536 0.49242902 -0.6756772 -0.5129356 -0.26320615 -0.15492322 0.52805847 0.009822006
6151 0.16129145 -0.14058425 -0.41289827 0.07180479 -0.13246115 -0.06158309 -0.07899328 -0.40440792 -0.10241786 -0.10665207 0.33858106 -0.022633333 0.47330767 -0.9240376 0.5036482 -0.6447403 -0.5197652 0.1151646 -0.5830785 0.14048287 -0.0041459403 -0.013379997 -0.17740671 0.30458903 -0.09971416 -0.4248106 -0.47853252 0.33854344 -0.033513386 -0.3956309 -0.21605602 0.5975244 -0.3451031 -0.01436108 -0.51592046 -0.23251447 -0.61161524 0.19760042 0.21207604 -0.0779717 0.9654785 0.37246904 -0.4962475 -0.03612136 -0.1640201 -0.38091075 0.41453135 0.841244 -0.9884715 0.06962915 -0.24113798 -0.8893318 -0.41872728 0.46253374 -0.13419768 0.15405445 0.59693694 0.101859674 0.4375426 -0.20052269 -0.48110163 0.010892985 0.3526058 -0.2606278
11335 -0.34778556 0.093074605 0.6405414 -0.62081814 0.46350113 0.86177355 0.28753865 -0.22323523 -0.2285491 -0.04333544 0.59332216 -0.3634595 -0.36551148 -0.7672876 0.57792294 -0.63651454 -1.2267364 1.8249161 0.37724096 0.2569352 0.10683165 -0.05283513 0.8854028 -0.07486641 0.6114313 0.30810085 0.325568 0.4378458 -1.0979846 0.3043123 -0.941539 -0.56356007 0.2244389 -0.73934656 -1.4996134 -0.44332123 -0.09066084 -0.2708205 0.086026505 0.36168772 -0.1439397 -0.9003603 -1.0138686 -0.39169955 -0.12947771 0.17977984 0.116631165 0.848306 0.19299991 -0.033816848 0.56613064 -0.4510528 0.43625125 -0.026825711 -0.7037045 0.4750642 0.17989096 -0.09850476 -0.75638556 1.1726398 0.34701377 0.5921877 0.4791539 0.55964017
30895 -0.31906804 0.18392004 0.351187 -0.5104703 -0.60217947 -0.08734367 0.6034304 0.6723342 0.85617834 0.51467305 0.523673 -0.39792562 0.014512888 -0.5973401 0.007556004 -0.88422203 -0.12154924 -0.31761453 -0.38259828 -0.38609546 0.116253644 0.3169358 0.5669975 0.22656591 0.6195746 0.5496746 0.023057258 -0.08102225 -0.46688324 -0.44280967 0.09346988 -0.16519402 -0.4875886 0.185681 -0.3913955 -0.12198249 0.453952 0.029838672 -0.57144856 0.32335436 0.27374232 -0.5092404 -0.032542557 -0.22920753 0.48262596 -0.081229575 0.5416603 0.21442705 -0.29228023 0.85565937 0.18119481 -0.547343 -0.17198034 -0.13571057 0.42726696 -0.20608681 1.1340328 -0.09754708 0.26143032 0.23709434 0.24003524 0.1483324 0.43360305 0.30246302
23507 -0.8329233 0.055164974 0.09016399 -0.68372613 -0.387556 0.04836429 0.32535172 0.0026186132 -0.81024957 -0.14876162 0.44794828 -0.19656867 -0.10797787 -0.062201135 0.15381303 -0.5319688 -0.8525691 0.377367 0.20619291 -0.89392614 -0.18116204 -0.8187193 0.26803234 -0.35913327 -0.72317064 -0.108142115 0.15601592 0.0735623 0.12861958 -0.3838292 -0.5269562 0.36138284 0.25070688 0.10575322 -0.48058665 0.21405248 -0.1684686 -0.30776894 0.6010869 0.24253903 -0.18040942 0.080899015 -0.43786198 0.33325762 -0.07947152 -0.3772555 0.4016909 0.41351736 -1.0711932 0.92188793 0.27371505 -0.7491704 0.027225932 0.4859065 -0.37800053 -0.35163876 1.143681 -0.104300775 -0.00414396 -0.118957765 -0.0697763 -0.34737685 0.25591835 0.2685668
23116 0.7195606 0.016257703 -0.31216922 -0.83592063 -0.087263264 0.6128783 0.5014155 0.17549573 0.3085481 0.05356446 0.59896547 -0.026960155 0.0017289156 0.38071528 1.445928 -0.14155045 0.55975115 0.73611546 -0.62729377 -0.10686149 0.11044313 0.3001799 -0.024333905 0.29253817 0.03353246 0.5147921 0.6049259 -0.036119163 -0.34246126 -1.0386422 0.23574099 0.15351386 -0.21695834 0.9305578 -0.41230226 -0.89803016 0.0051022256 0.38230595 -1.1147594 -0.2632872 0.013487359 0.09796605 0.60684717 0.4498676 -0.40128526 -0.004483012 -0.99430215 0.38455567 -0.3465443 0.94037384 0.7374676 -0.74565023 0.51429874 0.2776298 0.4444068 -0.3065928 -0.32219762 -0.088017665 -0.8693434 0.34267992 -0.6315431 0.26990744 -0.10101966 0.41398692
3192 -0.092018515 -0.4279411 0.013155512 -0.48164746 -0.0076204524 -0.0479286 -0.47095048 0.5525629 -0.0101319365 1.0903631 -0.01280006 0.38147643 0.010032875 -0.50599784 -0.18689688 0.8528699 0.49823248 0.0029041192 0.2620885 0.626584 -0.36395645 -0.86157626 1.0028747 -0.6153002 -0.6532728 -0.5782674 0.5431676 -1.2137791 0.25144506 -0.4645997 0.4480921 -0.112809464 -0.77017444 0.3388272 -0.15206927 -0.57398015 0.83564126 -0.07901705 -0.7043591 -0.5693228 1.1087161 -0.77664924 -0.6500828 -0.20403878 -1.1565862 -0.18842503 -0.32819825 0.5557474 -0.38622835 0.5426571 0.56793773 -0.9392555 0.39217776 0.3216669 0.14591695 0.07994661 0.21428491 -0.23942725 0.5365507 0.96187264 -0.014410415 -0.74218655 0.49550608 -0.23349732
7537 0.14446351 -0.13767432 -1.0718932 -0.7643518 -0.34450477 -0.94739753 0.14447862 -0.1767236 -1.3243866 0.9910146 -0.5405934 -0.7810341 1.026808 -0.25028732 1.0482953 -0.2604743 -0.33717173 -0.5670841 0.9073473 0.044027988 -0.6004362 -0.66245544 1.2916864 0.1843929 -0.0578804 -0.068080075 0.31297094 0.0630357 -0.018835528 -0.26375347 0.62332666 -0.36144102 -0.47826353 0.101559505 -1.9924414 0.6481071 -0.28381258 0.9791737 -0.5696393 -1.1158179 0.93891287 0.012145335 -0.20079027 1.0677552 -1.1068478 -0.87240213 1.2431718 1.5259097 1.4841613 1.703073 -0.3203682 1.0549053 0.40262768 0.09008126 -0.07939267 1.1030589 -1.4177649 0.019142788 -0.99949634 1.8697009 0.5461985 0.65953636 1.1136651 0.5050198
20534 -0.36701202 -0.4452208 -0.24727826 -0.2003514 -0.29218006 -0.019992262 0.23937422 -0.3549838 0.6642053 0.57449 0.5082741 -0.3590983 -0.00438757 -0.46897727 0.14511088 -0.4157056 -0.13772379 -0.35828403 -0.5802094 0.29107335 0.30810168 -0.19803087 -0.13419741 -0.49653295 -0.1122591 -0.0407634 -0.92504585 -0.11811885 -0.5030087 0.14590153 -0.12765245 -0.5887709 -0.5163628 1.1689487 -0.7864068 -0.418571 0.018048184 -0.13029747 -0.68827045 -0.025309384 0.50138175 0.76426077 -0.7616489 -0.9774373 -0.15279914 0.028923946 0.29463705 1.0715415 -0.6767632 -0.48896542 -0.71926844 -0.4875912 0.13964498 0.8370124 -0.64830214 -0.4296024 0.38650388 0.38399658 0.41717145 0.18818443 -0.023004089 0.67905813 0.3880866 0.06429181
29492 0.2617001 -0.43445224 0.41095415 -0.45888963 -1.1904671 0.9678171 0.41756535 -0.47182283 0.059944063 0.18781422 -0.0063386713 0.56395054 -0.6079205 -0.080391526 -0.52353925 -0.54415095 0.05398749 0.030430488 -0.24927977 -0.86679566 0.11908722 -0.38170657 0.31744963 -0.30863768 -0.30490586 0.19392334 0.017169854 0.62166387 -0.17754418 0.32000944 -0.5090734 -0.21733417 -0.24522893 0.6642849 0.062874936 -0.90939766 -0.41246796 -0.013807765 0.35909355 -0.9815312 0.5782553 -0.33095104 0.9848967 0.7565994 -0.3599422 0.18294804 0.8174527 0.8249854 0.1186243 0.401555 0.85127914 -1.2008833 0.36255816 0.86999935 -0.22186346 -0.12577058 0.3931535 -0.44900614 0.833826 -0.038370766 0.25030792 0.41179952 -0.11441478 0.99875766
8875 -0.31053102 -0.36028653 -0.4493313 0.52398515 0.29222795 0.60929096 0.3980908 -0.6597251 0.19361438 0.5469435 0.60761344 -1.0403991 0.06429306 -0.53729916 0.33051482 -0.27700716 0.6775852 0.27848768 -0.7393081 -0.030559806 -0.4056178 -0.092421055 0.4993776 -0.8807711 -0.17124957 -0.21544582 0.8892518 0.14980409 -0.1514992 0.1519382 -0.28382728 -0.037985068 -0.56047744 0.16767435 0.009968816 0.027305903 0.0904965 0.3562836 -0.08530623 0.012131026 0.94009286 0.40422562 -0.24514398 0.6329229 -0.7686983 -0.468788 0.45861566 0.9024409 0.11489532 0.0406061 -0.5588121 -1.1749301 -0.05256268 -0.45117697 -0.8658656 -0.05293648 -0.65319103 0.39097995 -0.1490294 -0.42808434 0.717344 0.086478114 -0.647221 -0.20492423
28957 -0.28278247 0.29759634 -0.12537499 -0.5127662 -0.14968053 0.4488262 0.45886916 -0.1674082 -0.36713013 0.5743107 0.048125803 -0.25316265 0.0882654 -0.41222224 0.06789794 0.13374832 0.08220484 0.1645094 0.18442076 -0.29638475 -0.11776401 -0.8616228 0.6575849 0.07600627 0.2982449 -0.4816031 0.30957562 -0.25260624 0.6085477 -0.22239256 0.061243724 0.0689646 -0.39123964 1.1517553 -0.45709634 0.022715474 0.4879411 -0.31800726 -0.4399223 -0.3603014 0.118666805 -0.838547 0.4460222 0.42345774 -0.8927312 0.37651977 -0.6507317 1.6718622 0.14308801 0.297217 0.32024762 0.39297256 -0.17003101 -0.01186315 0.059470788 0.5606763 0.70298916 0.9709105 0.6464865 0.2159929 0.14886145 -0.17087245 -0.08768919 -0.04527338
20602 0.11403922 0.666897 0.34490836 -0.31390738 -0.15985239 0.38893697 0.2700455 0.47945282 -0.31768933 0.93824863 0.32463667 0.052000146 -0.5480753 -0.45021197 0.3321035 -0.1268535 -0.81578106 -0.7812673 0.38771543 -0.06324446 0.35674807 0.69228774 0.018766923 -0.35830423 -0.21216737 0.52429414 0.20231894 -0.10539622 0.93974495 -0.6631321 0.38332102 0.2203966 -0.389145 -0.3275597 -2.052706 -0.11066167 1.4060074 -0.19428194 0.059308536 0.13536185 -0.05426898 -0.3472298 -0.46005878 0.91957587 0.0121865785 0.98840153 0.4401461 0.40256208 -0.76530254 -0.29906633 1.326755 -1.2313262 0.05149725 0.18759927 -0.24527682 0.52245504 0.31253505 0.25205958 -0.5552986 -0.34445667 0.1217759 0.84624916 -0.051760793 -0.82672703
15889 -0.04082211 -0.6067304 -0.7239817 -0.4418949 0.4661056 0.514596 0.82570094 -0.073662035 0.29193705 1.3395886 1.3268785 0.0381016 -0.49288607 -0.7346746 0.15396498 -0.084038585 -0.38603362 0.34316286 -0.20954263 0.34225622 -0.02561136 0.11295757 -0.085870445 0.14873359 0.086888336 0.17911586 -0.30156243 -0.086376466 -0.7150139 -0.19233216 -0.05976089 0.44983184 1.2411085 0.8527998 -0.24750511 -0.93239933 0.91975445 -1.4735495 -0.013091902 -0.49804258 1.1682737 -0.031742033 0.6928145 -0.01591419 -0.8180117 -1.1061705 1.1066242 0.64242303 -0.047182664 -0.7989938 0.40697813 0.4684601 0.76030016 -0.87711984 0.7364467 1.516116 1.3913889 1.4913845 -1.2973592 -0.23064588 -0.042685624 0.44925454 0.628182 0.13581246
65650 0.0045459964 -0.39434662 0.80786145 -0.71917063 -0.30549562 0.56133556 -0.66737807 -0.114353135 0.81041646 0.875412 0.84759104 -0.53538483 0.18953286 0.015295732 0.07380976 0.046200108 0.28527617 0.4625954 0.025911508 -0.042583533 0.015997529 0.30274233 0.5188238 0.5506047 0.05106205 0.14353824 0.18606982 -0.3285577 0.2831662 -0.0245402 0.76953876 -0.8606192 -0.12256747 -0.58975697 -1.3624275 0.04461153 0.022051852 -0.21171027 -0.3756604 0.06278287 0.05100517 -0.36414966 0.33112964 0.41403311 -0.1220924 -0.086854696 -0.24772188 0.8443597 -0.2967561 -0.507547 0.08964116 0.19738337 -0.6519262 0.4267195 -0.020772336 -0.097714216 0.03418899 -0.26351595 0.13572568 0.27987134 0.06529888 0.45242304 0.82259595 0.117121585
6125 0.25507712 -0.06583914 -0.12535074 -0.52203506 -0.5277116 0.65196043 -0.39241275 0.20018291 -0.32200295 0.9440284 0.9037324 0.032960486 -0.32376558 0.17667355 0.5350326 0.10059932 0.32157406 -0.318677 0.3753344 0.539369 -0.058378644 0.47717872 0.21904947 0.47223058 -0.47337627 -0.2432769 0.27274495 0.37834385 0.5944755 -0.14517364 0.47600508 -0.19413197 0.011441105 0.41953087 -1.2785932 -0.20910846 0.36390668 -0.086875156 -0.3312096 0.42254844 -0.85651815 -0.47331715 -0.47524986 0.7899264 -0.23906614 0.368195 0.26834545 0.3875699 0.07359946 -0.019007191 0.7156193 -0.95835984 -0.9105646 -0.082152784 0.121692754 0.0860614 0.15982139 0.19532941 -0.27396044 -0.26819718 0.10312999 0.76188964 0.8005791 -0.30600533
67415 0.7066544 0.072677426 -0.07773758 -0.16262946 -0.99258506 0.5192047 -0.51343834 -0.525215 0.5180508 0.67278886 0.9286025 0.08599717 0.11773757 0.5407554 0.96461374 -0.09336784 -0.5020904 -0.16633095 0.38618368 0.9558847 0.3030607 0.6413748 0.58554554 0.17794761 -0.3345526 0.26452807 0.52837217 0.24391858 0.36017168 -0.10622551 0.2972607 -0.39709008 -0.43841928 -0.48681027 -1.2034334 -0.6260308 0.71748716 -0.46024424 -0.7032054 -0.7029089 -0.23647699 -0.37718868 -0.5205045 -0.0003060747 0.31737506 0.4313369 -0.42102364 0.77315044 -0.43444034 -0.21747683 0.12675504 -0.14025952 -0.2730622 0.029321348 -0.14224404 0.081451744 -0.5367292 0.31649682 0.07177655 -0.030323392 0.7067926 0.4197912 0.034781046 -0.45355174
73162 -0.09475905 -0.89807564 0.9513019 -0.5514976 -1.6445632 0.85776997 0.3961448 -0.15899624 -0.6735442 0.5126019 -1.0237914 -0.10147703 0.37115678 -0.58277017 0.38386562 -0.047185857 -0.0127344085 -0.22300196 0.6957569 0.32380897 0.15386009 -0.16785628 1.5516778 -0.33662707 1.1809351 0.046322703 0.3911055 -0.7485574 0.82672703 -0.15184097 -0.5126814 0.17319378 -0.9799536 0.14327417 -0.14531815 -0.5483476 -0.021107983 -0.46128568 -0.4346738 -0.4536657 0.0955336 0.7128987 -0.31461522 0.17180109 -1.0412223 -0.17395328 0.27222756 0.16570008 -0.45384473 0.23628397 -0.5460987 -1.0019627 0.83977157 0.92276746 1.1951483 0.85421044 0.13603497 -0.4101783 0.17436562 1.0233499 0.8823951 0.43455628 0.85640246 -1.4961679
7532 -0.105737895 -0.2682223 -0.6698711 -0.7463337 -0.31136423 -1.1011072 0.29677922 -0.5306389 -1.3118778 0.99887806 -0.52425736 -0.75081277 1.1117364 -0.03247249 1.167402 0.054922007 -0.13551249 -0.49648103 0.5057486 -0.01779238 -0.25970036 -0.6251361 1.1794653 -0.20746644 0.12728567 -0.08638073 -0.029318236 -0.1502834 -0.13420227 -0.43579403 0.7780703 -0.6082849 -0.46250743 -0.028883133 -2.1625636 0.21758798 0.03211357 0.8194237 -0.08432848 -0.95104253 1.0312089 0.25061178 -0.4151405 1.2201425 -0.67271745 -0.8135923 1.1471103 1.5838351 1.6385759 1.7673812 -0.20793843 1.1189182 0.41625017 -0.05903145 0.1644583 1.2874733 -1.2207396 -0.073526755 -0.71618927 1.8412117 0.47107157 0.40124398 1.0410229 0.35007212
66990 0.3329888 -0.59144163 -0.4576884 -0.11357217 0.15941279 0.94683766 0.6350056 0.24097468 -0.29620767 -0.87436765 0.5526099 0.107498094 0.4569057 -0.76272905 -0.036784258 -0.7161179 -0.08385244 -0.30715907 0.48895988 0.064105295 -0.91402745 -0.72881013 0.6604687 0.09081103 -0.9768463 0.001777514 -0.1414642 -0.061677277 0.4007262 0.3084537 0.5551849 0.8415904 -0.5901206 0.76992244 -0.013818686 -0.8693832 0.7003665 -0.4217489 0.2519598 0.040910322 -0.93472886 0.12554319 -0.176371 0.53581154 -1.0445554 0.09224189 0.67938375 1.2873546 0.13422854 0.672573 -0.32456785 0.7716541 -0.26390246 0.3702614 0.009006108 0.67860913 0.149228 -0.1621618 0.52696985 0.35463458 -0.8106235 -0.18047187 -0.80893165 -0.11766636
240321 0.42680094 -0.7990475 -1.031847 -0.04604475 -0.47371954 0.6196229 0.6044625 0.38726032 0.18702011 0.07939336 -0.15538397 -0.37125146 -0.60379434 -0.057025444 0.42152703 0.4299997 -0.33668414 -0.1670117 0.33949387 -0.13824108 -0.22575688 -0.3627035 0.6100584 -0.47242218 -0.3054414 0.0720864 -0.42181554 0.07837631 -0.4297774 0.033361938 0.5579411 0.7373088 -0.07447588 0.5297521 -0.31503445 0.5657485 0.39357284 -0.9434222 0.11869624 -0.210568 0.03665946 0.121487215 0.107130274 0.043322798 0.29210725 -0.23682773 0.58230287 1.4109432 0.17611368 0.8506807 0.67163557 -0.35470036 0.028643535 1.315483 0.1211439 -0.4629565 0.23895325 -1.3706636 -0.4492647 -0.018524949 0.30702418 0.5115274 0.31075564 0.02803959
575077 -0.0021221456 -0.106881134 -0.48515093 0.6491464 -0.6704594 0.4834978 1.0217359 0.28966737 -0.48517624 0.4990706 1.0624067 -0.30280218 -0.24178971 -0.38466886 0.39461535 -0.061478663 0.60838073 0.08479592 -0.2924208 -0.19663347 0.7934501 -0.10723267 0.41002542 0.25334418 0.038445774 -0.47568107 -0.568415 -0.052481987 0.08020016 -0.488971 0.035873428 -0.4057814 0.71970797 -0.61507195 -0.18843758 0.055273175 0.25643888 -0.09753441 -0.108476676 0.2211967 0.53227055 0.27236083 -0.06637972 0.618687 -0.3654916 -1.0192357 0.3752362 0.23442805 0.33237854 0.05008619 0.07029944 -0.5192653 -0.037065018 0.66036713 0.028915405 0.21701974 -0.63315314 0.18224737 0.17991967 0.22126077 -0.26036134 0.08037962 -0.445277 -0.16260546
